%YAML:1.0
---
opencv_ml_ann_mlp:
   format: 3
   layer_sizes: [ 144, 32, 2 ]
   activation_function: SIGMOID_SYM
   f_param1: 2.
   f_param2: 1.
   min_val: -9.4999999999999996e-01
   max_val: 9.4999999999999996e-01
   min_val1: -9.7999999999999998e-01
   max_val1: 9.7999999999999998e-01
   training_params:
      train_method: BACKPROP
      dw_scale: 1.0000000000000000e-03
      moment_scale: 0.
      term_criteria:
         iterations: 20
   input_scale:
      - 7.8743982203827994e+00
      - -2.3595637949537442e+00
      - 8.0508338513740938e+00
      - -2.3602894114997448e+00
      - 8.6867960668326472e+00
      - -2.7156730750272988e+00
      - 8.5490758798985311e+00
      - -3.0955204871704658e+00
      - 8.6076188061046484e+00
      - -3.3597986767665877e+00
      - 8.0053309840366165e+00
      - -2.5835620043633245e+00
      - 8.3139974420583460e+00
      - -2.1298590920308831e+00
      - 8.2519668721513728e+00
      - -1.9914565147554728e+00
      - 7.8454303372462189e+00
      - -2.1838267761625838e+00
      - 8.0135059182753370e+00
      - -2.2981292959799160e+00
      - 8.2477139144707952e+00
      - -2.3904040784346683e+00
      - 8.8080748824539636e+00
      - -2.7197482660963925e+00
      - 8.8086617974824950e+00
      - -3.1545560304530267e+00
      - 9.0761797860914069e+00
      - -3.5879628841055347e+00
      - 8.5500121145214720e+00
      - -2.9198958625037594e+00
      - 8.7379794029334459e+00
      - -2.3703616549675592e+00
      - 8.6517454372639513e+00
      - -2.1428469394727681e+00
      - 8.1371257269694155e+00
      - -2.2169083507025138e+00
      - 7.3874793669946781e+00
      - -1.9688473815051482e+00
      - 7.9523654567403508e+00
      - -1.9510524750241489e+00
      - 7.9972113442407897e+00
      - -2.1375907244532066e+00
      - 7.6747847309483976e+00
      - -2.7311103893918172e+00
      - 8.3853481879205045e+00
      - -3.4492329019759715e+00
      - 7.9664010781391905e+00
      - -2.8591026307019800e+00
      - 8.0526878993696798e+00
      - -2.2797574894400916e+00
      - 7.9053858293429622e+00
      - -2.0524527590025232e+00
      - 7.3903160221832938e+00
      - -2.0067103537780495e+00
      - 7.3395289788406535e+00
      - -1.8255075383958772e+00
      - 7.7087185362399229e+00
      - -1.7245458199564103e+00
      - 7.3506677674867804e+00
      - -1.9186774156012907e+00
      - 7.1490337861423008e+00
      - -2.6098252231119980e+00
      - 7.7773220310938989e+00
      - -3.4716146355419917e+00
      - 7.1880628028205322e+00
      - -2.7214047639225916e+00
      - 7.4323851271653840e+00
      - -1.9507600975426993e+00
      - 7.6196939360192788e+00
      - -1.6722790767524109e+00
      - 7.4718744761566391e+00
      - -1.8208580829804821e+00
      - 7.2765316252968102e+00
      - -1.7572703370094962e+00
      - 7.6847319348927492e+00
      - -1.7373421817523744e+00
      - 7.7537270819158808e+00
      - -2.0376522794183844e+00
      - 7.3444438624787258e+00
      - -2.9871635970907406e+00
      - 7.0826943639554933e+00
      - -3.1747489182784374e+00
      - 7.9621798339314909e+00
      - -2.8326019798645867e+00
      - 7.7226307617955428e+00
      - -1.8898538388920980e+00
      - 7.6724913334374518e+00
      - -1.6605143063412551e+00
      - 7.2273691642922326e+00
      - -1.7263657426515853e+00
      - 7.4429980524170274e+00
      - -1.7237833315068354e+00
      - 7.8378868684362297e+00
      - -1.7966690877995537e+00
      - 7.7711856268015467e+00
      - -2.1224388972061736e+00
      - 8.1854161482606624e+00
      - -3.2222495706653111e+00
      - 7.5465437095168362e+00
      - -3.3442951990656629e+00
      - 8.0448427308057564e+00
      - -3.0495475131269707e+00
      - 8.0153358846447720e+00
      - -2.0983315363554778e+00
      - 8.0300077641666938e+00
      - -1.7954431648468430e+00
      - 7.4946376416756930e+00
      - -1.7260717287707938e+00
      - 7.4452542389204579e+00
      - -1.4085927872076678e+00
      - 7.7625062939896941e+00
      - -1.4689845765950242e+00
      - 7.3517914859738136e+00
      - -1.7764158242265344e+00
      - 7.3068976152715877e+00
      - -3.0352395727918142e+00
      - 7.3610184072767559e+00
      - -3.5213795776408401e+00
      - 7.3864872360055465e+00
      - -2.9859779242185049e+00
      - 7.3699091066536804e+00
      - -1.8418336240291271e+00
      - 7.7089096762606717e+00
      - -1.5071857372196091e+00
      - 7.4265647993413086e+00
      - -1.4250740453645592e+00
      - 7.4240290598207439e+00
      - -1.2742896847561815e+00
      - 7.3562241817819665e+00
      - -1.2554303906221160e+00
      - 6.6506035553831913e+00
      - -1.5446542018455256e+00
      - 6.8979372797868619e+00
      - -2.8172980041400431e+00
      - 6.2183325803737688e+00
      - -3.1704380716523919e+00
      - 6.7514607724232070e+00
      - -2.6962964952325050e+00
      - 6.7545404814907926e+00
      - -1.5251899815346022e+00
      - 7.3785663999620166e+00
      - -1.2521794267223050e+00
      - 7.3926772001552452e+00
      - -1.2656376008446675e+00
      - 7.1420726868231945e+00
      - -1.6997713980823523e+00
      - 7.6564799187780546e+00
      - -1.6688311384449865e+00
      - 7.6315639911099105e+00
      - -1.9110283079352803e+00
      - 7.7279712161832572e+00
      - -2.8487517894552443e+00
      - 6.9513071346111328e+00
      - -3.1115913111742364e+00
      - 7.3151520609520180e+00
      - -2.8817876052145146e+00
      - 7.7787083136936106e+00
      - -1.9902463034751430e+00
      - 7.5484986892178529e+00
      - -1.6907482230289848e+00
      - 7.1014058359394392e+00
      - -1.6982629208155249e+00
      - 7.5928445231945529e+00
      - -1.7350210044518997e+00
      - 8.0123709658911899e+00
      - -1.8013691410550423e+00
      - 7.8281315000902687e+00
      - -2.1398505007345459e+00
      - 7.9679856598762866e+00
      - -3.1530664188963429e+00
      - 7.7326591143744103e+00
      - -3.4129161745538972e+00
      - 8.0977594628749063e+00
      - -3.0722496116029352e+00
      - 8.0161016143264945e+00
      - -2.1471445630547352e+00
      - 7.8123796282122440e+00
      - -1.7676219470763992e+00
      - 7.5018737892548923e+00
      - -1.7191050083291712e+00
      - 7.3465105753570024e+00
      - -1.4494028624041477e+00
      - 7.6189026887586060e+00
      - -1.5290930928908890e+00
      - 7.3175181779305678e+00
      - -1.9084940164219699e+00
      - 7.4713751696885424e+00
      - -3.1559117643487804e+00
      - 7.4173875269657890e+00
      - -3.5258639490544001e+00
      - 7.2876612995711891e+00
      - -2.8361445088160968e+00
      - 7.4571308704076582e+00
      - -1.7671104990752857e+00
      - 7.7024636335024734e+00
      - -1.4524025878436728e+00
      - 7.3915179635398909e+00
      - -1.4290094387463099e+00
      - 7.3959341114763255e+00
      - -1.2756297455153902e+00
      - 7.2977753184343834e+00
      - -1.2559303287218733e+00
      - 6.6683376645761676e+00
      - -1.5313472465283027e+00
      - 6.9402791497381644e+00
      - -2.9275501297040978e+00
      - 6.2727274326001030e+00
      - -3.1815260240468550e+00
      - 6.6769334134271725e+00
      - -2.5750492316906386e+00
      - 6.7283653493050917e+00
      - -1.5342916742927659e+00
      - 7.3547472797013800e+00
      - -1.2577526800322074e+00
      - 7.3813114447276496e+00
      - -1.2788822364068331e+00
      - 7.9384332322307181e+00
      - -2.2732737320722163e+00
      - 8.4546527919614611e+00
      - -2.1131216750600585e+00
      - 8.3507096987118903e+00
      - -2.2198454912598846e+00
      - 7.8377018113050436e+00
      - -2.5737270842465998e+00
      - 8.6475106122358714e+00
      - -3.3439938678712329e+00
      - 8.5721273440376340e+00
      - -2.9770910578924710e+00
      - 8.7285029967813319e+00
      - -2.6561287388156449e+00
      - 8.1278778735903412e+00
      - -2.3878517083531090e+00
      - 7.8615875054492745e+00
      - -2.3806127255149230e+00
      - 8.2476928885673360e+00
      - -2.2484751462038726e+00
      - 8.6754159864954516e+00
      - -2.1819542697215306e+00
      - 8.5884606191960717e+00
      - -2.3811249650317334e+00
      - 8.6159144544324526e+00
      - -2.9894906487053499e+00
      - 9.4039109818011202e+00
      - -3.7193049547770518e+00
      - 8.7606634703815445e+00
      - -3.1047271254739472e+00
      - 8.9702093022415959e+00
      - -2.7412615515050107e+00
      - 8.4013359298094539e+00
      - -2.4114888966891828e+00
      - 8.0943562527522221e+00
      - -2.3093810945865143e+00
      - 7.4457159984433430e+00
      - -2.0419865943109898e+00
      - 7.9913817792190640e+00
      - -2.0868334336321435e+00
      - 8.0945992708274019e+00
      - -2.3455225732838536e+00
      - 7.8865496784230364e+00
      - -2.8687337219132427e+00
      - 8.3201803130806482e+00
      - -3.4075492951767528e+00
      - 7.5857970137682749e+00
      - -2.5957778599291932e+00
      - 8.2501763468764562e+00
      - -2.1885395821044886e+00
      - 7.8616697819853592e+00
      - -1.9665391274025938e+00
      - 7.3894888067200295e+00
      - -1.9813463035068899e+00
      - 7.2167613638988142e+00
      - -1.7852241433781175e+00
      - 7.6672784294582650e+00
      - -1.7234047322505108e+00
      - 7.3537738485269504e+00
      - -1.9901781264772238e+00
      - 7.2258278107748586e+00
      - -2.7706690645490628e+00
      - 7.9693609605647868e+00
      - -3.5336912410328747e+00
      - 7.0905981051762605e+00
      - -2.4980135476695251e+00
      - 7.4266662484489414e+00
      - -1.9032757191829304e+00
      - 7.6882380916796205e+00
      - -1.7149821889558732e+00
      - 7.1801807592449061e+00
      - -1.7956688095456201e+00
   output_scale:
      - 5.2631578947368418e-01
      - 4.9999999999999994e-01
      - 5.2631578947368418e-01
      - 4.9999999999999994e-01
   inv_output_scale:
      - 1.8999999999999999e+00
      - -9.4999999999999996e-01
      - 1.8999999999999999e+00
      - -9.4999999999999996e-01
   weights:
      -
         - 1.4282209386193684e-01
         - 2.9861371862501398e-02
         - -3.5868351591496699e-02
         - 1.3620318858683547e-02
         - -3.8295417614715023e-03
         - 8.8117764645121513e-03
         - 2.6320346779599279e-02
         - -3.8978662871466591e-02
         - -4.3485151089141243e-02
         - -5.2981411467258481e-02
         - -7.7376036160634060e-03
         - 1.3235787806930922e-02
         - 1.1580185133106853e-02
         - -3.3590830641763179e-02
         - 1.9570709378620110e-02
         - 1.0463436746905678e-02
         - 3.3586692840046691e-03
         - -1.6860305367277482e-02
         - -1.0831705017751667e-01
         - 9.7990302937613197e-02
         - -1.8458430475929304e-02
         - -2.5318659947665318e-02
         - -6.4782133860054880e-03
         - -1.3513134202025956e-01
         - 3.1981542633088481e-04
         - 1.5348891150214814e-02
         - -8.4752811924256322e-02
         - -8.3746519186865126e-02
         - -8.3035255530706564e-02
         - -2.7249176049976776e-02
         - 4.9458392629253355e-02
         - -1.3717328964240109e-02
         - 9.4123329003215087e-02
         - 7.1520558369607884e-02
         - -2.4970408821019679e-02
         - 1.0554573207445652e-02
         - -2.5086093129173984e-02
         - 6.1635318100522083e-03
         - 8.3116018360196386e-02
         - -2.8102250776216000e-02
         - -4.6899281760671013e-02
         - -5.0239192908805456e-02
         - -1.7291155480920996e-02
         - -2.6169175676990800e-02
         - 5.3561123394223066e-02
         - 1.1337637376379110e-01
         - 5.3172879472335885e-02
         - 6.6304624063398933e-05
         - 1.2905288113141218e-02
         - -9.7975804122012206e-02
         - -7.6889950412541486e-02
         - 1.3480245584937103e-01
         - 1.0589861331134300e-02
         - -9.9158361826770271e-03
         - 3.9013602684298869e-02
         - -1.3953250527697136e-01
         - 3.1894137512579286e-03
         - -2.9375344929150133e-02
         - -4.6002111467558005e-02
         - -1.4693072269890933e-01
         - -1.0017051138818235e-01
         - 4.2031622221969912e-02
         - 9.9488841178263759e-02
         - 1.4857218761872076e-02
         - 1.7305393103128097e-01
         - 7.6775229507544646e-02
         - -9.2039894077069265e-03
         - -3.4102173984995092e-02
         - -3.7125751442288824e-03
         - -7.0450781506148112e-03
         - 5.1891895049195766e-02
         - -1.1205089442733518e-02
         - -1.8706632674819361e-02
         - -3.0616365963571732e-02
         - -1.5342700135254248e-02
         - 2.9688504434955739e-02
         - 3.7400033742208558e-02
         - 1.0127838002738038e-01
         - -1.0158011742831212e-01
         - -1.0839736201188555e-02
         - 1.5817163444937443e-02
         - -1.5314243536029662e-01
         - 9.4370135946694744e-02
         - 1.3079038680599983e-01
         - 4.1504239607220238e-02
         - -3.2319074383998947e-02
         - 1.1326608032405994e-01
         - -1.5006453383070670e-01
         - 1.8272177566150443e-02
         - 3.6683280614206920e-02
         - -1.5732926298632443e-02
         - -3.4031023138023475e-01
         - -5.5716007210633793e-02
         - 1.0982239915893385e-02
         - 8.4367388431143039e-02
         - -4.1086866653719904e-03
         - -5.9729939746105853e-02
         - -9.2478077319560047e-03
         - -3.2716217104299945e-03
         - -7.6760289597485772e-03
         - 1.5468435583140086e-02
         - 5.6079759042529593e-03
         - 4.8410295078701517e-02
         - -8.0557230230774157e-03
         - -1.1733634037664442e-02
         - 4.2967989528966528e-02
         - 1.0840112930974590e-02
         - -2.7966414040925831e-02
         - -2.5284177066380979e-02
         - -1.6869998495593441e-01
         - -2.2413910289557187e-01
         - -1.5190753130904676e-02
         - 6.9219423650606219e-03
         - 6.0761400884125086e-02
         - 5.9656329962840281e-02
         - 2.0685285770636447e-03
         - -6.3921750997416584e-04
         - 1.3001351560898806e-02
         - -6.3175250848229707e-03
         - 1.0252248644669398e-02
         - 2.2147681467635297e-02
         - -2.8242074949985381e-02
         - 1.3178721608348912e-01
         - -3.6672419920232832e-02
         - -1.4945645310049831e-03
         - -6.4339053076127063e-03
         - -3.7762140671785467e-02
         - 1.6539104466749756e-02
         - -2.3192520033592623e-02
         - 1.9554374661559636e-02
         - 1.5381977123982914e-02
         - -9.2697825796170582e-03
         - 1.2099721252622453e-02
         - -8.9349249642505530e-03
         - 7.7122458590024201e-02
         - 9.9935409603369631e-03
         - 4.2164199536426868e-02
         - 1.1913773048338084e-02
         - 2.0297146370367298e-02
         - 2.5571775619972412e-02
         - -2.9854700187296340e-02
         - -2.1163462490209051e-01
         - 3.4485149406114628e-02
         - 9.4530901582032499e-03
         - -1.2688653326823024e-03
         - -6.1338399584537941e-02
         - 5.5077088039657525e-03
         - -2.7848580282602717e-02
         - -1.4032159609588537e-02
         - 4.7540927023155710e-02
         - -1.5389153427067970e-03
         - 1.1273220536738952e-01
         - 1.5202489961801147e-02
         - 3.5531137282789720e-02
         - 1.1705915250638521e-01
         - 1.5557640489385974e-01
         - -7.9898125074391022e-02
         - -2.3410725282807621e-02
         - -9.7455801572868900e-02
         - 7.7743812968703342e-03
         - -2.2560941230705825e-01
         - 6.4722776823160744e-02
         - 2.4705585915514031e-02
         - -9.2891584079481358e-03
         - -1.6539955561410042e-03
         - 2.1682425922474945e-02
         - 1.4247018891970958e-01
         - 3.2409109877911527e-02
         - 2.3083333643653354e-02
         - -7.3021186375438307e-02
         - 2.4969618952926033e-03
         - 2.7004250073638349e-02
         - 2.7146611332373765e-02
         - -1.9841823387039415e-01
         - -5.1718033648946074e-02
         - 1.8092246420952918e-02
         - -5.2523049150425809e-03
         - -1.2402616134607665e-01
         - 7.9623270855811862e-02
         - 1.9876380974321356e-01
         - 4.8869943279454715e-03
         - 1.6313371102414008e-02
         - 1.2596561535433638e-02
         - -5.9237811556129484e-02
         - 1.3475975041591641e-02
         - 1.2268284870988813e-02
         - -8.3526578257478112e-02
         - 1.0513609063465353e-01
         - -4.0331168564362523e-02
         - -3.4678030073230275e-02
         - -4.7316908756092409e-02
         - 1.7737559890043844e-02
         - -4.8151235559477215e-02
         - 2.5948427689002251e-02
         - -5.1307786276720948e-03
         - -3.6528907199337671e-02
         - -7.5112194444205650e-03
         - -1.6378379146590679e-02
         - -5.8451665523570326e-02
         - 1.2637774346699049e-02
         - 5.4847684346583320e-03
         - 8.4949952710235227e-02
         - 2.3808924660167805e-02
         - 3.7572141996651792e-02
         - -7.9012881069904228e-03
         - 2.7258775679059887e-02
         - -8.9853313902567344e-02
         - 6.3525594694591615e-03
         - -2.6345524979138887e-02
         - 3.5747163233840147e-02
         - 1.1816677477254336e-01
         - 6.8585375408048196e-02
         - -8.3196387570526574e-03
         - -1.4419016958953017e-02
         - 1.9111408412759268e-02
         - 1.8109991762935113e-01
         - -1.6412245961593463e-02
         - 6.6512256235779207e-02
         - -2.4736894410183050e-02
         - -1.8194734688134678e-01
         - 1.0845864814421377e-01
         - 6.3886639785832441e-03
         - -4.1282261446250149e-02
         - -5.8244472946487004e-03
         - 1.6857198348527256e-04
         - -7.2737962769968672e-03
         - -3.8372139735289926e-03
         - 6.1655766467320398e-06
         - -1.6870307020777891e-02
         - -1.4881295729528066e-02
         - -2.0246715111760138e-02
         - -3.6119627149680169e-03
         - 6.4417432569745716e-03
         - 9.5951835915731656e-02
         - 1.5109229843662350e-02
         - -5.0550321955799379e-02
         - -1.4358249096663044e-02
         - 2.2259569901980319e-01
         - 5.4777071156354856e-02
         - 5.3868886535655700e-03
         - -3.3759729880827795e-02
         - 2.4063968671977246e-01
         - -6.7450725661462069e-02
         - 9.8820471726699666e-02
         - -1.8240507709589002e-02
         - -2.1966643686909485e-02
         - -1.3199047148165502e-01
         - -6.8763601462128810e-03
         - -2.5362958662873098e-02
         - -4.1595056128060241e-02
         - -9.5474988724220597e-02
         - -7.2002704534092105e-02
         - -4.9109613205605168e-02
         - 2.8076367748691031e-02
         - -4.9516827647253021e-02
         - -1.7995987188481850e-02
         - 9.2350529733998717e-03
         - -1.2720050774091373e-02
         - -4.1939593346856534e-02
         - 6.3361577355476560e-03
         - -7.8710459974768131e-03
         - 1.5757559396585910e-03
         - -4.9441438759151600e-02
         - -3.0401327612675381e-02
         - -2.4203264914103455e-02
         - 1.2476625739376681e-02
         - 8.1288967769821505e-03
         - -3.7959521738341682e-02
         - 9.3901831377029531e-03
         - 3.4210126300481258e-02
         - 2.0602903410074931e-02
         - -4.7191029241437114e-03
         - -2.6235813388131180e-02
         - 2.0212000762012780e-01
         - -1.2750095571560557e-01
         - -1.8562320468862421e-02
         - -5.8009270657613209e-03
         - -1.7734934474915830e-02
         - 1.9572159111586235e-02
         - -5.4801847829725976e-02
         - -4.4362705686145712e-03
         - 3.6770406922725452e-03
         - -8.5513281943126643e-02
         - -5.5949315746220323e-03
         - -3.9392596285848638e-02
         - -4.5084959270966819e-02
         - 2.6279343419745520e-02
         - -6.8295363821172291e-03
         - 6.8267983489476894e-02
         - -1.8383854841610224e-02
         - -4.9295234015090887e-02
         - -2.3355901419751489e-02
         - -1.4483658914492352e-02
         - 1.4244092638491745e-03
         - -2.1849140063824685e-02
         - -3.1262174749879509e-02
         - -6.1078559837346898e-02
         - -2.9861509992815491e-02
         - 6.6908895375077868e-03
         - 8.5136307180917040e-02
         - -2.8822520788960037e-02
         - -1.0931409303382880e-01
         - -2.3801802538512957e-02
         - -2.1524884011624522e-02
         - -1.3973062045302338e-02
         - -6.9540063937459484e-02
         - -1.0529887859562902e-01
         - -4.5954025646280953e-03
         - 8.1259831150792428e-03
         - -1.0380095059468613e-02
         - 8.2555215163996942e-02
         - -1.1343916604577245e-01
         - -1.1016366884669868e-03
         - 5.9039573352797102e-02
         - 6.9814996304832733e-02
         - 1.1764023757923808e-01
         - 4.2808711279250573e-02
         - 4.6446286147851013e-02
         - 2.1149265481113622e-02
         - -1.8845781227849447e-02
         - 1.9396045402717751e-01
         - -3.5461364124112112e-02
         - -4.9157501214505850e-02
         - -3.7685560216582425e-02
         - 3.9981462272516899e-03
         - 2.0262989569093982e-02
         - 7.6362379536833211e-02
         - -6.8333271722576194e-02
         - -6.2217744291123006e-02
         - -6.8030906509491344e-03
         - -4.8129790063554286e-02
         - -5.8712223061550169e-02
         - 6.6607829779590635e-02
         - 8.9998742458345757e-02
         - -1.4609715204826911e-02
         - 1.2814975776840478e-02
         - 3.6756107650063111e-02
         - -1.3525450235512149e-01
         - -1.6276181682455854e-01
         - -1.5160744017177773e-02
         - 6.5921550999583972e-03
         - -1.3352009741878834e-02
         - -7.5210341408511239e-02
         - -2.0591024922114934e-01
         - -4.5560274984299664e-03
         - 1.5645637140059585e-01
         - 3.1648458883621486e-02
         - 6.6660847071100288e-02
         - 9.2176886505786523e-02
         - 4.2729834672443394e-02
         - 1.3700778536432789e-01
         - -2.2696278297862915e-03
         - 5.1296067337048723e-02
         - 6.0561298102429877e-02
         - -3.5291277954981479e-02
         - -1.2735752702833023e-03
         - -3.9446455046568763e-03
         - 2.9140858228504058e-02
         - 2.1023332469440423e-02
         - -3.5690582347906723e-02
         - -3.4921558261090585e-02
         - 5.9593140868554835e-02
         - -5.4808376620581002e-02
         - -1.7309467833438286e-01
         - 9.8150020511903135e-02
         - 1.9262352466946242e-01
         - -5.6174937652079433e-02
         - 1.1517224723838036e-02
         - 3.3136153900263254e-02
         - -1.9211721453044558e-01
         - -6.7864257104430586e-02
         - 7.5306656038090836e-02
         - 1.9407781589271721e-02
         - -3.1574468457732416e-02
         - -5.0517144505587567e-03
         - 8.6612787729187478e-03
         - 1.6499079254512206e-02
         - 8.6054361291721670e-03
         - -4.5859555513351476e-02
         - 6.2021336124984207e-02
         - -1.9307317341567216e-02
         - -1.7746091759277378e-03
         - 1.9417728100870349e-01
         - 2.7923443726341673e-02
         - -1.7200182697213254e-01
         - -2.7572336044866187e-02
         - 1.8682670263389167e-02
         - 1.7405207034804172e-02
         - 1.1194389958713852e-02
         - 2.8090702554127732e-02
         - 5.8405476267882207e-02
         - 2.0774891028148054e-02
         - 2.1697528354396988e-02
         - 4.3399286194708904e-02
         - -1.8047121545007067e-02
         - -4.1038446362726771e-02
         - 6.7492772888353104e-03
         - -1.5908934191432127e-02
         - -5.3386221316269657e-03
         - 2.0995156453848817e-02
         - 2.8851620138542016e-02
         - 2.3988632070773619e-01
         - 3.3111680299175834e-02
         - 3.4742070227313383e-02
         - -4.3351656659572921e-03
         - -2.2189858582092326e-02
         - 1.6109320622527987e-02
         - -9.8590779627657998e-02
         - -1.2549720109386827e-03
         - -9.2781119649803220e-02
         - -6.8133302034494733e-02
         - 5.6685917213271229e-02
         - 7.5062603026103930e-02
         - 1.0652230042901774e-01
         - -1.7515148049998559e-02
         - 3.1063637632498104e-02
         - -5.2496446471850713e-02
         - 2.8977617173332783e-02
         - 3.6247645408682937e-02
         - 1.6759989136508766e-02
         - 5.4527100476932542e-03
         - 4.9192298697646446e-03
         - 2.7463904954990324e-02
         - 3.1946652323803705e-02
         - 5.3440951319029560e-02
         - 3.5197132812569851e-02
         - 7.5419636288746334e-03
         - 4.0804439338483482e-02
         - -4.4275170095692123e-03
         - -7.1781723154278873e-02
         - 9.1197045295937154e-02
         - 1.9400517503966600e-02
         - 1.3336566312402405e-02
         - 1.3983225131265359e-01
         - -2.5395994401400404e-02
         - -1.2772249987078288e-01
         - 1.2684211136820197e-02
         - -7.5736142723914227e-07
         - 6.8056928709421483e-02
         - 1.9797851303033168e-01
         - -7.1316455469142299e-03
         - 2.0363132133172927e-02
         - 7.9168273279704021e-02
         - 5.5619091012601714e-02
         - -9.5259382260654835e-02
         - -1.5080467605231091e-02
         - -6.7859900706456755e-02
         - 2.7208025907559899e-02
         - -1.6319828168966110e-02
         - 8.3691877172858128e-02
         - 2.6201142313133724e-02
         - 4.3218896324640557e-02
         - 3.7946029805976940e-03
         - -1.8086266526453425e-03
         - 8.4742183885737118e-03
         - 5.2398902940496594e-02
         - 3.4296184401345541e-02
         - -5.4777417778939137e-02
         - 4.8037825912233739e-02
         - 2.7404004821859663e-02
         - -3.3100193849885891e-02
         - -6.3254816156083291e-02
         - 3.9271810401222851e-02
         - 1.0825100836437508e-03
         - -2.1744916366127503e-02
         - 7.3755816409622463e-02
         - 1.5875932460249093e-01
         - 1.6154678967700881e-01
         - -4.8957108189714091e-02
         - 8.2092452614453137e-03
         - 1.0000992334335040e-01
         - -5.3538758216809854e-02
         - -1.7464840440381373e-02
         - -1.1397409327960346e-01
         - -1.3497612442481449e-01
         - 1.1721126764856002e-01
         - -1.9794705364659607e-01
         - -3.7181401528218028e-02
         - -9.3426578602962759e-02
         - 2.2020094619192267e-02
         - 8.3475089354009296e-02
         - 4.2214015859068872e-02
         - 9.6211153019451785e-03
         - 3.9034950855001638e-02
         - -7.6087828947041438e-03
         - -2.0875073706064631e-02
         - -1.0875426598906353e-01
         - 3.3791525129144531e-02
         - 4.5722094586290738e-03
         - -7.5311619970782784e-02
         - 4.9276199636223345e-02
         - -4.0200419006264011e-02
         - 9.5214550483244554e-03
         - 9.5211649017779759e-02
         - -5.7836102946454290e-02
         - -1.7975185858882217e-02
         - -4.4330469895119275e-02
         - -9.2437640651868436e-02
         - 1.4113001886263957e-01
         - 1.4994184575375610e-01
         - -2.8186417743914383e-02
         - 3.6315078364268388e-03
         - -9.9755961330440054e-02
         - -1.6716158859046834e-01
         - -2.9699092129037751e-03
         - -1.0721082470947454e-01
         - 1.0662287823389559e-02
         - -3.7229420678030005e-03
         - 7.2070872523225388e-02
         - -6.7365687798132359e-02
         - 8.2533951116755960e-03
         - -2.4185860086230727e-02
         - 2.3084133229534207e-02
         - -2.8938316407519527e-02
         - 7.1689649210840908e-03
         - 6.1742434680946605e-03
         - -6.2661017215036056e-03
         - -1.7315120274647430e-02
         - 7.2268743287246130e-03
         - 3.1835495213703741e-02
         - 9.2955891214359498e-03
         - -2.0245618061045908e-02
         - 1.9564991110984076e-02
         - 7.6601468899545014e-02
         - -4.5282378088341863e-03
         - 2.7145669157458082e-02
         - -4.9570902720518693e-02
         - -3.7092452860519647e-02
         - -4.0768484933051803e-02
         - -8.4700311165975886e-02
         - -7.6475255138969255e-03
         - 9.1141205076527759e-02
         - -1.4144438560131801e-02
         - 2.0182605569860766e-03
         - -8.2069460509848438e-02
         - -2.6124319910675521e-02
         - 6.6669154906113144e-03
         - -7.0392889596904611e-03
         - -1.5324567374894590e-02
         - 6.0776517260879057e-02
         - 8.5044496774464504e-03
         - -8.0909589643267069e-02
         - -9.0579536450570430e-03
         - -3.1892608990824557e-02
         - 9.2611860567520660e-02
         - -2.6620822336649089e-02
         - -1.0283666257255563e-02
         - -2.5597596639241344e-03
         - -1.8329853677064825e-03
         - -2.3806190622399519e-02
         - 2.1894513952998670e-02
         - -6.6616815111571149e-03
         - -5.1945880462347792e-02
         - -7.5837616304051461e-02
         - 1.6278904643073539e-02
         - 1.4513749772496892e-01
         - -2.3430140795101983e-02
         - -3.3835294463674247e-02
         - -3.2560617138148243e-02
         - -2.0564898135651415e-02
         - -5.0243971179297256e-02
         - -9.1483349728188681e-02
         - -1.1904787165814415e-01
         - 1.1917478701414107e-01
         - -1.1199097473034115e-02
         - 2.6072454441593122e-04
         - -4.8782221924924742e-02
         - -1.5399769995675378e-01
         - 9.5116340484429664e-03
         - 1.8102132479563719e-02
         - 4.1031685352780144e-02
         - 1.9451671649444540e-02
         - 6.1409509976404257e-02
         - -3.5683044976269592e-03
         - 2.2364601460961486e-02
         - -4.4843558771322234e-02
         - -7.1414939146880241e-02
         - 5.0985367252648385e-02
         - -2.6368676031573217e-02
         - -2.6007415123925574e-02
         - -8.5366116908930090e-03
         - -8.6614766109404419e-03
         - 4.4468372010884001e-02
         - -1.4325100227159953e-02
         - -7.9767111281029146e-02
         - -9.8566262178490391e-02
         - -4.2069652675910126e-04
         - 8.4575768595274742e-02
         - 4.4664139305501435e-02
         - -9.6162744723332139e-02
         - -5.8879248317598415e-02
         - -3.4689243918892068e-03
         - -1.7492203528503569e-02
         - 1.4026863585246510e-01
         - -8.7615799693645011e-02
         - 1.1903437834894451e-01
         - 1.2675620757845811e-02
         - 2.1445203696895399e-02
         - 1.1366140313791714e-01
         - -1.0740181899052587e-01
         - 1.0238505447978146e-02
         - 5.2838661398186437e-02
         - 8.0234774598632333e-02
         - -1.0688165882088117e-01
         - 1.1161961265752066e-01
         - -3.2356378963235059e-02
         - 8.8071128667661938e-02
         - -1.5626609620272153e-03
         - -1.7172250303842986e-02
         - -2.3128808009254303e-02
         - -2.7281970431862576e-02
         - -3.6325359093244199e-02
         - 2.9715217676268946e-02
         - 2.0458620729718158e-02
         - -1.1385474113033077e-01
         - -3.4629831691057468e-02
         - -8.7807011374764918e-02
         - -1.3554590460121679e-01
         - -1.0400445674863869e-02
         - -2.1190497482267337e-01
         - 7.5665194715505341e-02
         - 4.1205481555261894e-02
         - 9.4430305398166773e-03
         - -1.2022683353812982e-04
         - 4.1730435989300527e-02
         - 3.3514282749401068e-02
         - 4.8766434982120944e-02
         - 4.4501651226844803e-02
         - 2.6390044063461203e-02
         - -3.7793717898495015e-03
         - 1.6920116361398685e-01
         - -2.0254474532999509e-01
         - 9.7280762138754230e-03
         - 8.5587406105323935e-02
         - 1.4272085574977292e-01
         - -1.1619070753502619e-01
         - 1.3670682025374270e-01
         - 9.6542408264671434e-02
         - 1.3957052244370505e-01
         - 1.0143825061800145e-02
         - 5.1612716520846383e-02
         - -1.4474151377278846e-01
         - 1.5504116734587747e-02
         - 4.1567982598332987e-04
         - 2.8378102537174137e-02
         - 5.7318965906936695e-03
         - -8.5418941160159897e-02
         - 7.0985142408676455e-03
         - 1.2915587252481091e-02
         - -8.6591317310972388e-03
         - 1.2258467704085221e-02
         - -4.9016664081962591e-02
         - 1.5443159768947865e-02
         - 9.8361491074768867e-02
         - -7.8868890255077193e-02
         - -4.2737009820335891e-03
         - 3.2246766162822640e-03
         - -8.8345797572406348e-02
         - -2.0913091671369084e-02
         - -7.8843596708025127e-02
         - 2.7970787265829238e-02
         - 1.6157947051391640e-02
         - 1.5953786275484456e-02
         - 1.1240466556480971e-01
         - 7.2023243969216964e-03
         - 1.0711007231690590e-02
         - 6.7092298416892709e-02
         - 5.4502377781509327e-02
         - 1.3639256427517837e-01
         - 6.9856198173803508e-02
         - 9.6396107468016287e-02
         - -3.0427852272919140e-02
         - 7.3668671472802644e-03
         - -3.4198271581700967e-02
         - 5.5947957112968414e-03
         - 3.6481046850790268e-02
         - -1.6676325170684840e-02
         - 9.0985924823548097e-03
         - 1.4006839435808011e-01
         - -7.1110322501648287e-03
         - 4.6109755760048506e-02
         - 2.3023868141096575e-02
         - -7.0849743176213502e-03
         - 1.6498792887830774e-01
         - -4.4082800060550556e-02
         - -9.4479691756071214e-03
         - 4.3288728347119339e-02
         - 1.4214259754365204e-02
         - 2.6335027903313272e-02
         - -8.3844980121833293e-02
         - -3.9903880639262632e-02
         - 2.6417618750886535e-01
         - 1.8878532456692920e-02
         - 1.1223470393266977e-02
         - 4.0307053155192027e-03
         - 1.0674019222264050e-01
         - 7.5196967283895815e-03
         - -2.2900583457182874e-02
         - -5.1276924565284980e-02
         - -2.8499088695402065e-02
         - 1.0635898824313486e-01
         - 5.2304091519350025e-02
         - -5.4804977831060198e-02
         - 1.6275849924766338e-02
         - -7.1486221979576492e-02
         - 9.3820760708528267e-03
         - -1.8531931983976500e-04
         - 1.5190379156469310e-02
         - -1.4929982074168612e-02
         - 3.2487393984695481e-02
         - 1.4601582852741415e-01
         - -2.6828047797508102e-02
         - 4.1466381834330997e-02
         - 8.5644699225924131e-02
         - -4.1719821680806464e-02
         - 1.6420703317794769e-01
         - -4.4924477158027061e-02
         - -9.4191126732136397e-03
         - 1.1499579270120776e-01
         - 3.1773532544230605e-02
         - 2.2583940375613776e-02
         - -4.6293032088713547e-03
         - -1.7032015060513828e-02
         - -8.8659225218205767e-02
         - 4.6982032804340169e-03
         - -1.1605192006745500e-02
         - 1.0822664989296894e-01
         - 7.6279543289087495e-02
         - -1.0228988365256179e-02
         - -2.1741220770221857e-02
         - -1.2654863618404243e-02
         - -3.2476802895898264e-02
         - -1.2131532728266364e-01
         - 4.3249725066439149e-02
         - -1.5076784318321271e-01
         - 3.1056180935695014e-02
         - 3.8580653373359787e-02
         - -2.0349871847550792e-02
         - 8.3289944871532563e-03
         - 3.1049728845890814e-02
         - 7.6895607983266199e-03
         - 8.8911762492759859e-03
         - 8.8341967639527827e-02
         - 5.1439954547143237e-03
         - 3.5068705550409036e-02
         - 3.2179081707905961e-02
         - -1.1363005511947364e-02
         - 3.8482102565143478e-02
         - -4.1423339689645795e-02
         - -7.6978193832204992e-04
         - 2.0655146351239190e-02
         - 6.5724122561232152e-03
         - 8.4455993794585044e-03
         - 1.2489705407239102e-02
         - -6.5666005315053191e-02
         - -2.9850129825020683e-02
         - -3.1669052599637647e-03
         - -2.3633268754974342e-02
         - 9.8993943108573831e-02
         - 8.2396178257729519e-02
         - -2.7140188472372831e-02
         - -2.6342390582085658e-02
         - -8.3406049504582663e-02
         - 1.5212904380663270e-01
         - -3.6662254578010722e-01
         - 9.9071508951845216e-02
         - -4.7829850317561533e-02
         - 3.3362911620848291e-02
         - 1.3988223599398955e-01
         - -7.4554497789790605e-02
         - -1.4805357812541791e-02
         - 5.4709980597341286e-03
         - -1.4356558581328055e-02
         - -2.8234207839536247e-02
         - -1.5271318275582563e-01
         - -3.0287484711825352e-03
         - -2.1437718823246600e-03
         - -2.8370686378903127e-02
         - 2.5171100199825134e-02
         - -7.1989978095106433e-02
         - -1.5181080638196839e-03
         - 1.0587606800406675e-01
         - -6.0290328140407044e-02
         - -2.8450661675166359e-02
         - -2.9260190655758855e-02
         - 6.1344272879793271e-02
         - 2.6769927327731060e-02
         - -1.4273581153802865e-02
         - -5.7566134523373148e-02
         - 1.5210897264774348e-02
         - -2.2553375293178171e-01
         - -6.6865985034651090e-02
         - -2.5427713490274628e-03
         - -2.3389288435953049e-02
         - -5.4056230660809834e-02
         - 1.2877807579500250e-01
         - 2.5055505718766947e-02
         - 1.5366944447951969e-02
         - 1.1165877399008879e-01
         - -3.4335263061758686e-02
         - 4.3559338674733737e-02
         - 2.0296602381305529e-02
         - 1.9744978771611237e-02
         - -1.3324463490087911e-02
         - -1.8146892276582978e-03
         - -2.1245318932893175e-02
         - -1.2446274265087345e-01
         - 2.6218361610453805e-02
         - -1.6268789218138669e-02
         - -6.0058441677094381e-03
         - 2.9843388844871296e-02
         - -2.0544694217932860e-01
         - 3.6381444722202637e-02
         - -6.3723993377692309e-03
         - -1.3598637549819234e-01
         - -2.1951981475661159e-02
         - -3.1073862609200576e-02
         - 8.0373920195750834e-02
         - 7.4794520892253274e-02
         - 8.0806471233177010e-02
         - 5.8137066092727521e-03
         - 2.1552526736663934e-03
         - -4.6524802198329766e-02
         - -1.0456615426983902e-02
         - 1.8900665615303219e-02
         - 4.2344892928359275e-03
         - -9.5824860802177678e-04
         - -5.0140124785612701e-02
         - 1.6213801129822427e-02
         - 1.2014550076540534e-01
         - 6.5089749616901407e-02
         - -3.0460450482208867e-02
         - 8.9899982844974607e-02
         - 4.6116365015716559e-02
         - -4.5130150342555997e-03
         - -7.3950094544175558e-03
         - -3.0902856318101559e-04
         - -3.4227033539673429e-03
         - -1.1856813518528903e-01
         - 2.0159577577851001e-02
         - -3.8126168286486101e-02
         - -6.5647299734821307e-02
         - 7.4645460890935848e-03
         - -2.1565398427959984e-01
         - 5.1598994964226048e-02
         - -2.6366298027861806e-02
         - -6.6086176223346060e-02
         - -5.4136495314772290e-03
         - -5.5250811542612811e-03
         - 1.7638442063897775e-01
         - 1.0268747303524681e-02
         - 1.2572559357141486e-01
         - 2.3523578153770142e-02
         - 2.0996007855570983e-02
         - 1.3616376789420703e-01
         - -7.7667365170795491e-02
         - 1.3067715999873506e-02
         - 7.7170890388839536e-02
         - 3.0859109342481275e-02
         - 3.4777999315938432e-02
         - 2.4402500985927569e-01
         - -8.1663725357607863e-03
         - 8.9590392920661593e-02
         - -3.3036146350065736e-02
         - -6.5899151490476385e-02
         - -2.6582382886679547e-02
         - -3.6362738657719627e-02
         - -2.1349081361992567e-02
         - 1.5471431222892067e-02
         - 4.3451283060876710e-03
         - -8.5969365332340866e-03
         - -1.8486404697959577e-02
         - -7.3729721460006753e-02
         - -1.9934291864734222e-02
         - 4.3412219269115794e-02
         - -1.0343813556156975e-01
         - 2.1521700180318942e-02
         - -7.4698704239598290e-02
         - -7.9404102262942727e-02
         - 8.6172974428493400e-03
         - -2.9841767973841173e-02
         - 6.0231011532072026e-02
         - 7.3418085743969061e-02
         - 5.6345409584482777e-03
         - 3.9474826347261960e-02
         - 1.8730146362475320e-02
         - 6.3896696747431411e-02
         - -1.0651926788194971e-01
         - 2.3055616089645577e-02
         - 2.8696319469548134e-02
         - 5.6008611819752141e-02
         - -5.4737847703090030e-02
         - -2.8600194505274215e-03
         - 5.0139434319660919e-02
         - 5.2035231834031671e-02
         - -1.8006627595787996e-03
         - 1.6127601844482009e-01
         - 6.2347498049972090e-03
         - -3.2135936233096428e-02
         - -1.3411324342523916e-02
         - 1.1808894338696922e-02
         - 1.4314146507740192e-02
         - 2.4252211112037025e-02
         - -3.1878392780461090e-02
         - -3.2091405679429592e-02
         - -1.7402757462372631e-02
         - 8.4717437539536429e-03
         - -7.8060110738412597e-02
         - 5.3879664026200862e-02
         - -3.2998740494706369e-01
         - -4.1946523201222587e-02
         - 7.6433979148949980e-03
         - 1.3875809198063315e-02
         - -1.1866974871074024e-01
         - 5.3673125945924390e-02
         - -7.8937697039326751e-02
         - 6.7067648091523394e-02
         - 1.4889053928057215e-02
         - 1.3330690105371307e-01
         - -9.5622265452065050e-02
         - 3.3629198925628503e-02
         - 1.6005828157590952e-03
         - 4.4108183262515407e-02
         - -4.5169121929298547e-02
         - -1.9621073152736795e-02
         - -3.2010206774248595e-02
         - 9.9673602467950970e-02
         - 1.7302817208630129e-02
         - 1.6907438519069587e-01
         - -5.7833076960603497e-02
         - 5.2099544562516685e-03
         - -3.0863668051592952e-02
         - 5.5355118091170101e-02
         - 1.1365531503692778e-02
         - -6.2223692585945893e-02
         - -1.4353595952696113e-02
         - -2.9050205190753329e-02
         - 2.8967559101823016e-02
         - 1.7589856971436377e-02
         - 6.3101301604168478e-02
         - 9.1147359125447400e-03
         - -1.2153185241610258e-01
         - -6.1157080498668512e-02
         - -2.3474847197877544e-02
         - -4.9856000815664478e-03
         - -9.7132933726257920e-02
         - -8.8585529640746175e-02
         - -2.1569885172275713e-01
         - 1.6332203920340717e-02
         - 2.3924910370349370e-02
         - 7.2539286389748547e-02
         - -2.5012746857818298e-02
         - 9.0620228714359385e-03
         - 9.6994398585873068e-02
         - 1.4178021513876798e-01
         - 2.1184002370785285e-02
         - 2.2721808038971381e-01
         - -9.3794144485007433e-02
         - 7.7920954515443619e-02
         - -5.9774912763461696e-03
         - 1.7810117314832726e-02
         - -2.0406382151936620e-02
         - -1.5947310541123590e-02
         - -5.1422373217125346e-02
         - -1.9904893474527955e-03
         - 2.4935684959368348e-02
         - -8.0590190133287373e-02
         - -3.7045635021538736e-02
         - 1.5181773360808098e-02
         - 8.1930027946833808e-02
         - 1.4352758902832288e-02
         - -1.7673833728532792e-01
         - 3.9365190326388286e-02
         - 1.2854076761790922e-01
         - 9.4137029926110602e-02
         - 3.9154903464029202e-02
         - 4.5764280322514631e-02
         - -6.9984642878550204e-02
         - 3.0592609073984485e-02
         - 6.4513749581816757e-02
         - 4.9079985379128645e-02
         - -4.4747315898177493e-02
         - 1.9599837209007145e-01
         - 2.8332020503622497e-02
         - -3.8181494212187325e-03
         - 7.4061551731012545e-02
         - -1.7869683414431799e-02
         - 3.4343430319677321e-02
         - 3.5537140982387511e-01
         - 1.0781126255544618e-01
         - 1.3050230207024213e-02
         - -8.0462336070585773e-04
         - -4.4955883052103913e-02
         - 4.3252074647871556e-02
         - -1.0447331275946100e-02
         - -1.7632160066863974e-02
         - -4.0995610454657487e-02
         - 2.1918959836540328e-02
         - -2.3027841855835781e-02
         - -1.4339033403890086e-02
         - 8.9322263540986043e-03
         - -2.7669941192759326e-02
         - -6.7845652091304359e-02
         - -2.0510817306589300e-02
         - 2.3998771571114044e-02
         - 9.8503051195443697e-02
         - 7.1833224134958518e-02
         - 3.3400085421795539e-02
         - 6.3674124432915896e-02
         - 7.0151764890281590e-02
         - -6.6253516899658693e-02
         - 9.2084137930164595e-02
         - -2.8282165569864837e-02
         - -1.6198139458665543e-02
         - 3.2014067174794061e-02
         - 4.6498891771799208e-02
         - -1.6338002787682302e-02
         - 3.6991771154912145e-02
         - -4.7638323598432668e-02
         - 1.9626345505801546e-01
         - -2.8955068700722380e-02
         - 5.3499910489866472e-02
         - -1.5526601368837687e-02
         - 1.1205200702745910e-02
         - 6.4812679575005000e-02
         - 6.1292844958299203e-02
         - -3.6513185681934651e-03
         - 5.4862417058314156e-02
         - -2.2146019196631343e-02
         - 7.8677775946313470e-03
         - 8.0782617046429181e-02
         - -6.7774749435119313e-03
         - 1.2302561294063003e-02
         - -4.8423956347108388e-02
         - -6.3237055909398446e-02
         - 4.6976902231990574e-02
         - 5.9328834732730491e-03
         - -7.4832990515299050e-03
         - 1.6546319056124356e-01
         - 1.5468356009010984e-02
         - 3.3439950324316924e-02
         - 1.5720830643307347e-02
         - -3.8914502388345387e-02
         - -2.4630944006961836e-02
         - -1.0592892373071602e-03
         - 2.8211960854642042e-02
         - -5.5308947823366249e-03
         - -8.1401457505988720e-02
         - 1.7396158550622775e-02
         - -6.0704811803213986e-02
         - 8.2458626523831072e-03
         - 1.2118184255279116e-02
         - -1.6183094999285477e-01
         - 1.7123969636776112e-01
         - 1.0650764867856968e-01
         - 3.7195022895337833e-02
         - -7.9399325561595624e-02
         - -7.7439636457158859e-02
         - 2.2346680774693754e-02
         - 5.8046999395226208e-02
         - 1.6081689433496815e-02
         - -3.4424780169975619e-02
         - 6.7325192271989479e-02
         - 2.3813430587212032e-02
         - 3.1072512662961732e-03
         - -6.6166448518249404e-02
         - 4.5938204293026925e-02
         - 7.9739179946175673e-02
         - -1.2239938143192058e-02
         - -1.4325382116758764e-01
         - -1.9652534824594430e-02
         - -1.3888287491878724e-02
         - -4.4996029301777173e-02
         - -1.0407850194675033e-01
         - -3.0469567972281050e-02
         - -1.3458312934550246e-01
         - 2.2357990586485917e-03
         - -6.5078484872467101e-03
         - 5.1336485416181438e-02
         - -2.1442316559021515e-01
         - -9.9863346275470156e-03
         - -1.5008228567512980e-01
         - -1.3291698136024865e-01
         - 6.6010076204992468e-02
         - -3.3363559027340568e-02
         - -1.7169002972547634e-01
         - 3.3967667080419409e-03
         - -1.4896397098631305e-02
         - 2.0642516529907489e-02
         - 2.0544725876899183e-03
         - -1.6411275392016849e-02
         - 1.6422351059624359e-02
         - 7.4261378022529049e-03
         - -3.4904159146152997e-02
         - 8.3182807251279148e-02
         - 1.1300414665254825e-02
         - -1.0086132353817013e-02
         - -3.0815241692343252e-02
         - 5.4881799052462883e-02
         - 5.1605068542225768e-02
         - 1.8518517314934806e-03
         - -2.1052527430226090e-01
         - -5.2981075315845595e-02
         - -9.0248391412745439e-03
         - -4.6257346091295483e-02
         - -2.2852607994257153e-02
         - -6.7021560363031155e-02
         - -5.9677941838255151e-02
         - 4.8824645416619636e-04
         - -1.4516226283699525e-03
         - 5.9386310619236132e-02
         - -9.9743643013772490e-02
         - -1.1841839126104196e-03
         - -3.6880012969418202e-02
         - -2.7018913945558352e-03
         - 1.1831412642226609e-01
         - 1.0713558029685769e-01
         - -1.3982974649521468e-01
         - -8.1336269658865857e-03
         - -4.1135009410145241e-03
         - 2.4294666961138613e-02
         - 1.1704569471493616e-02
         - -2.8776337766834734e-02
         - 1.1996927822500137e-03
         - -6.0905534678594424e-03
         - -3.0757701805131890e-02
         - 3.2893100334900720e-02
         - -6.2700426535011117e-03
         - -4.7848369471324093e-02
         - -6.7089448838743182e-02
         - 6.4551440847340200e-02
         - 4.0232475018932838e-02
         - 9.5170977218820025e-03
         - -1.0126150359839058e-01
         - -8.5546784634163070e-02
         - -2.9985881695695753e-02
         - -3.9200910323690628e-02
         - 7.3193710654003305e-02
         - 4.8805912538910845e-03
         - 6.9626330144964527e-02
         - -1.2427536819309361e-02
         - 1.0439621589815071e-02
         - -3.0464965169853267e-02
         - -1.3899630218795242e-01
         - 1.0855208353316072e-02
         - 3.2864964679399380e-02
         - 1.0385802834488483e-01
         - -9.1752152496984707e-03
         - 1.1544567601837014e-01
         - -5.3303850017896816e-02
         - -1.5194697240722258e-02
         - -4.4262797950722372e-03
         - -3.2298617307410286e-02
         - 4.2617508772523904e-02
         - -1.0392622312176593e-02
         - 2.8410711258400164e-02
         - -1.7826812878049755e-02
         - -1.7495517193231211e-02
         - 3.5576791494972088e-02
         - -1.0380497517383212e-02
         - -5.8772870739145335e-03
         - 1.6500416163873051e-02
         - 8.7573713641953023e-03
         - -1.0824013908312570e-01
         - 2.3162976143416680e-02
         - 6.9712196266552770e-02
         - 6.6842236164879068e-02
         - -6.4716682042746613e-03
         - -1.3088170026492235e-02
         - 1.8200378144920895e-01
         - 3.7105513269077572e-02
         - 2.6898337266605784e-02
         - -9.8647942894567863e-04
         - -2.6297809571280906e-02
         - -5.8644712234087813e-02
         - -2.1887880240538220e-03
         - -1.9846147593663443e-02
         - -6.8506341746259497e-02
         - -1.0836066226810744e-01
         - -7.2065217383473212e-02
         - -6.6289911951954009e-02
         - -1.1735252781800470e-02
         - 3.5092601445999294e-02
         - 4.1062312608884533e-03
         - -1.5292661749559806e-02
         - 1.1684560242494239e-01
         - -1.0697012375043190e-02
         - 5.5512456259091125e-02
         - -2.9062978898966720e-02
         - 2.8100686172418021e-03
         - 1.2594461069104801e-01
         - -1.6737939682372734e-03
         - -1.3315801753030083e-02
         - -3.4006111880484607e-02
         - -2.0782408144788180e-02
         - -8.7349979590187768e-02
         - 6.3834479655615450e-02
         - 7.0680497666625611e-02
         - 1.4328804856288241e-01
         - -1.8165987661550295e-02
         - 2.1107599034428812e-02
         - 6.8062739435013099e-03
         - 1.2335277210203864e-01
         - 1.3462897026436513e-01
         - 2.5155276258617798e-02
         - -3.5178503773452795e-02
         - 1.0311261996236161e-01
         - -7.5550433793511701e-02
         - 2.3444324393990406e-03
         - -8.1775843430179657e-02
         - -6.2979759585588255e-02
         - -9.5306130480269660e-02
         - -2.7976516262908226e-02
         - 3.2241212423047054e-02
         - 1.0508845643683028e-01
         - 3.3539190908922198e-02
         - -1.3126396387223566e-01
         - 9.3139896075046774e-02
         - 7.0907966907131133e-03
         - 4.4003408236003717e-02
         - -1.2347058347837357e-02
         - -8.0053320175080510e-03
         - 1.1186292116523748e-01
         - 2.6185867714981562e-02
         - 3.0425166747165840e-02
         - -3.3562107646596846e-02
         - -4.8992167477715318e-03
         - 7.9684468468273026e-02
         - 2.9101788663777828e-02
         - 7.0631216294985019e-02
         - 3.1304859781922399e-02
         - -7.0291032741739775e-05
         - -1.2159444745384075e-03
         - 3.1627406368377319e-02
         - 1.7547281182664562e-01
         - -4.0176967850804636e-03
         - 3.3598786792070484e-02
         - -5.5458113488427614e-03
         - 9.6476223924356702e-02
         - 2.5725189915035158e-02
         - 7.4108118967576705e-03
         - -7.3771338246609489e-02
         - -7.7590145304900937e-02
         - -2.9973764053795854e-01
         - -6.4004706086710758e-02
         - 2.9696554168017312e-02
         - 4.7165187979712440e-02
         - 3.7368573447359908e-02
         - 1.1998248352685692e-01
         - -4.0557014548301129e-02
         - -2.9988610275336590e-04
         - -2.2555232486194319e-02
         - 2.8335290312422667e-02
         - -5.8099173221996571e-03
         - 4.0967106283375215e-02
         - 1.4178981738212311e-02
         - -8.4335262855910545e-03
         - -1.8197005304444274e-05
         - -2.4198327505434762e-02
         - -3.1637799964956428e-03
         - -6.3377775668745752e-03
         - 4.2405436316303481e-02
         - -1.0228333797363512e-01
         - -4.3318708699862278e-03
         - 1.8772587178315685e-02
         - -2.0418057839627680e-02
         - 3.2809403825348069e-02
         - -8.3009822143837272e-02
         - 2.3935101223961754e-03
         - 1.7264856402298575e-02
         - -2.1984917564425714e-02
         - 2.2705070492219123e-03
         - 2.5640734379287600e-02
         - 6.6545636879643669e-02
         - 1.3672263356767297e-01
         - 2.5117806082026778e-01
         - -7.3738002301722925e-03
         - 7.8779230278259546e-02
         - 2.7076208751478106e-02
         - -8.9146451584097928e-03
         - 1.4344363402242769e-01
         - -1.2815773456879908e-02
         - -2.6638490348430036e-02
         - -1.7372407417372501e-02
         - 2.7346346347195915e-02
         - 1.8305734294465050e-02
         - -4.4142964550164275e-02
         - -2.5123458192536044e-02
         - -2.2692295822649707e-02
         - -4.4566159935105355e-02
         - 1.4036657111664306e-03
         - -1.9829004425683184e-02
         - -3.0152232297763069e-02
         - -7.1985312293959228e-02
         - -7.3965584641467561e-02
         - 2.4515138033360481e-03
         - 2.1218450384009154e-02
         - -5.2865016790151556e-02
         - -7.1541801430162782e-02
         - -1.0002051452155469e-01
         - -3.4323807187111033e-02
         - 3.6739345873959023e-02
         - -3.0592129429236739e-02
         - -1.0692371541862869e-01
         - 5.8017288879144684e-03
         - 6.6140835904050357e-02
         - 1.7410800745170341e-01
         - 1.1889456041308089e-01
         - 1.0285178563076161e-02
         - 3.0035085575577183e-02
         - -1.6780473506745025e-02
         - -9.3293956298792554e-03
         - 1.1248584024306135e-01
         - -6.7532984337707588e-02
         - -3.5391682044385045e-02
         - -2.9652250574257535e-02
         - 1.1761041260622657e-02
         - 4.2547521183241895e-03
         - 2.7772392869662325e-02
         - -1.3821807777143365e-02
         - 3.7455410053365817e-03
         - -6.5074961020625391e-02
         - 1.3235669989478123e-02
         - -2.4838187009824191e-02
         - -2.0558480842519475e-02
         - -7.7224305342648777e-02
         - -1.5382777248584470e-01
         - 1.5092663432477092e-02
         - -3.4517703537201524e-03
         - -8.8133071455051726e-02
         - -1.7057167886949315e-01
         - -4.7885998314630709e-02
         - 1.8051094943779145e-03
         - 1.8270665500233665e-02
         - 8.1365758054269821e-02
         - 6.2263888072637434e-02
         - 2.0624321681521965e-03
         - 7.3476841031713300e-02
         - -1.2904951219258056e-02
         - 1.5142856251798797e-01
         - 1.1252489408464911e-01
         - 2.7364854158840051e-03
         - -1.5446131634725271e-01
         - 2.0725862734528211e-03
         - 4.2436741524892241e-02
         - 3.3301089453906002e-02
         - -1.9265726321782431e-02
         - -3.0039142298766450e-02
         - -1.4920202890718975e-02
         - -1.4982763192414629e-02
         - -1.8234049279099884e-02
         - 5.0420686720303615e-04
         - 2.1728230175353042e-02
         - 1.0086915698242321e-01
         - 3.8997252986556871e-03
         - 8.9108344317013310e-02
         - -9.4564340616725921e-03
         - 2.6208243038999299e-02
         - -1.1510856595605649e-01
         - 1.9749561429295015e-03
         - -9.3521587790575990e-03
         - -6.1811634993592733e-02
         - -1.2258797822783173e-01
         - -9.9239301949303541e-02
         - 1.0818330599222921e-02
         - -3.1544423582049057e-02
         - 1.6463815191298969e-02
         - 1.6603170349841648e-01
         - -3.5964322753196934e-03
         - 9.2401639292355481e-02
         - -6.1567370326651868e-02
         - -1.3598285458830620e-01
         - -1.1790761043424104e-01
         - 2.6740135986524652e-02
         - -5.2274996640830254e-02
         - -2.2187683379808944e-03
         - -9.3560864600126040e-02
         - 1.9497179174480520e-02
         - -1.1817205668792709e-02
         - 1.4058256717184062e-02
         - -3.1927730795703151e-02
         - 1.0485265215167875e-02
         - -3.1258730144674701e-02
         - -6.2399736076549674e-03
         - -1.6946606503168715e-03
         - 9.7359146705808752e-02
         - 1.4829082655145723e-02
         - 6.7863934986622122e-03
         - 2.9190324360836593e-02
         - 1.2792281857591781e-01
         - 4.9408388187474887e-02
         - 1.0313421750266548e-02
         - -5.2391377687414885e-03
         - -2.1585335256590069e-02
         - -1.7205696253814098e-01
         - 6.3624178195374817e-02
         - 8.2364328492894080e-03
         - -5.1909809263838147e-02
         - -8.2000344889170296e-02
         - 8.5195677298296399e-03
         - -3.3804442638146172e-02
         - 2.8212744444565899e-03
         - -1.5083174099571686e-01
         - -5.2503043756718756e-02
         - -1.7533201015891578e-02
         - 1.5165937569242177e-02
         - 3.8622091075329240e-02
         - 8.2042671411576614e-03
         - -7.7714241603624085e-02
         - 3.0904042953796375e-02
         - -3.6975292646048417e-04
         - 1.4050293749631269e-02
         - -3.0302299532725795e-02
         - -1.4905017933490217e-05
         - -1.5190356949291524e-02
         - 6.9354547985857578e-05
         - 1.9357751200681009e-02
         - 5.3540253685382282e-02
         - 1.5907203714352110e-02
         - 2.7130254755888747e-02
         - 1.1603898754957763e-02
         - -3.9651653330876883e-02
         - 9.6711038844003602e-02
         - -1.0744148774575071e-02
         - -2.2267603369469827e-02
         - 1.9034689278347680e-01
         - -5.5989113205707569e-02
         - 3.8666243433513665e-02
         - -1.3565118148903302e-02
         - -4.0414193041752804e-02
         - -9.2099102726966777e-03
         - 3.7235767165949354e-03
         - -4.1895596415786100e-02
         - -1.3094275210824593e-02
         - 2.8400275458206939e-03
         - -4.4142398419687388e-02
         - -7.8379408905159945e-02
         - 2.0157644131413407e-02
         - -1.3093345524651811e-02
         - -6.7184976318183645e-03
         - -1.4760598932295746e-01
         - 1.9809896380746844e-02
         - -4.9721706470893433e-02
         - 5.6114069110295931e-03
         - -2.6694130235449375e-02
         - 1.5047474759501005e-02
         - 1.2620759404076687e-01
         - -7.0278007213298979e-02
         - -1.2304886452802000e-02
         - 6.8880667081036892e-02
         - -3.3748586515314767e-02
         - -3.6040290934407505e-02
         - 6.0243636292912454e-02
         - -3.9808228843872875e-02
         - 1.0364760189396530e-01
         - -2.1997687251612379e-03
         - 2.3947412866941967e-02
         - -4.0403771196998450e-02
         - -5.5734003775154618e-02
         - 6.5944011665626287e-02
         - 4.3045530516918340e-02
         - -2.8307548703764087e-02
         - 7.3223237171723479e-02
         - 1.4729503058912522e-02
         - -4.0731615505160126e-03
         - -5.9211173022760124e-03
         - -6.9442783160654747e-02
         - 8.0817937176298177e-02
         - -1.7557690382390068e-01
         - 9.9235061717489401e-02
         - 6.4307738721185517e-02
         - -1.1348626981634688e-03
         - -1.2606570058159644e-01
         - 7.1780658793795221e-02
         - -2.8912810006843054e-02
         - 1.8346306696272827e-02
         - -4.5596475774260785e-02
         - 3.1560829638310146e-02
         - 2.4714462542217067e-01
         - -4.2207017251482612e-02
         - 1.8322857804671092e-02
         - 1.1196252400867785e-02
         - -3.1721124844152890e-02
         - -5.9128200467054200e-02
         - 4.4464545410311113e-02
         - 4.1380660719375422e-04
         - -2.1749239258431596e-02
         - -4.1852718488854810e-03
         - 3.4018439247113716e-02
         - -7.3062358034560210e-02
         - 1.5450255464923981e-02
         - 1.0804637912186987e-01
         - 2.2807495947681569e-02
         - -1.8933444816284836e-02
         - -2.9625582057814199e-02
         - 2.8140120713330695e-03
         - 1.3018387583519532e-02
         - -5.6123765688779192e-02
         - -4.5610658059267450e-02
         - -2.2544687979639150e-01
         - -1.3945034867918274e-01
         - 1.0508079938826242e-01
         - 2.1582148220117725e-02
         - 3.5173383233008192e-02
         - 1.9539883471857474e-02
         - 5.2272569297424486e-02
         - -1.1400540927560723e-02
         - 1.1455541375516033e-02
         - -3.5557266021591656e-02
         - 8.6941454099445561e-03
         - 1.2616790094651001e-01
         - -2.0716408809579725e-02
         - 2.8695989262929041e-02
         - 3.0207394936681872e-03
         - -3.8093908244796047e-02
         - -1.2271707710511209e-01
         - 4.3045160071420743e-02
         - 8.8235290013280857e-02
         - -9.0819990712866380e-02
         - 2.7907409459660557e-02
         - 3.9462968246757234e-02
         - -1.2012626500683830e-01
         - -7.3998382225944362e-02
         - -1.4131707002471161e-02
         - 3.0256455791653453e-02
         - -2.3340658482097237e-02
         - 5.1825736639274748e-02
         - -7.2977818886644135e-03
         - 1.6028070811700025e-02
         - -2.0808599464777113e-02
         - -5.8225645008227238e-02
         - -1.2700943677534685e-01
         - -7.8000656691457629e-02
         - 1.1985776053452656e-02
         - -1.0649822250959571e-02
         - 1.5437467533159164e-02
         - 1.9399636037821233e-01
         - 4.9714032030829164e-02
         - 3.1760577554005763e-02
         - 1.1731253686545729e-02
         - -2.0456172908093290e-02
         - -5.4108279766344556e-03
         - 3.2815423293501025e-03
         - 3.9845905020629777e-02
         - 1.2969528131447368e-02
         - 1.7532580957528757e-02
         - 1.8084770265537665e-02
         - -7.4612323275509790e-02
         - -2.1600314882612062e-02
         - -6.2247126384404237e-02
         - -1.1126701761714836e-01
         - 8.4408156917058794e-04
         - -2.0989161070691927e-02
         - 2.5590890330979532e-01
         - -1.1028422264204375e-02
         - 1.4042650014095881e-01
         - -2.9201524613174053e-02
         - 1.3954708757133540e-02
         - -5.2969396638188559e-02
         - -8.5524455493526524e-03
         - 4.5594788437815937e-03
         - 2.3241279474312367e-02
         - 1.5550997724161580e-01
         - 1.1547682377223102e-01
         - -6.8104446590002809e-04
         - 1.3314797252252522e-01
         - -2.1749522281428908e-02
         - 4.0771922059797180e-03
         - 1.3555373319355007e-01
         - 7.8125289906677154e-03
         - -4.6242594294428081e-03
         - -2.9603091287435802e-02
         - 7.8640231372768040e-03
         - -1.4217013178302368e-02
         - -3.5774781746605179e-02
         - 1.2437511075966419e-02
         - -2.1512859864218574e-02
         - -5.6303056120652034e-02
         - -8.5622001327075731e-04
         - 8.2418324269802390e-02
         - -2.2349799671835306e-02
         - -1.1790040861398604e-01
         - 1.7572463772016461e-02
         - 1.5804680146988114e-02
         - -8.5184078312869234e-03
         - 1.7430224946854408e-01
         - -6.8335213850295746e-03
         - -9.1523058572142546e-02
         - -2.3272881803472447e-02
         - 2.4382635376867232e-02
         - 2.4442315027868183e-02
         - -2.2368636126073902e-02
         - 6.0948809988877221e-03
         - 7.9870739211171646e-02
         - 1.1879118830383285e-01
         - 1.1799118790451690e-01
         - 2.3314353794384686e-02
         - -6.5334830974353608e-02
         - -4.9788733851939375e-02
         - 6.7533471829528922e-03
         - 9.9317680759582291e-02
         - 2.5941215908056509e-02
         - 2.3191436869696502e-02
         - -3.8126753246637010e-03
         - 9.0096131720960974e-03
         - -1.1280010108629598e-02
         - -4.5343615277336172e-02
         - 2.3293517245036706e-02
         - 7.9578106110743032e-03
         - -7.6359751973483381e-02
         - 1.6643657511772665e-02
         - 5.2251378783857223e-02
         - -8.9665576387670913e-03
         - 8.8578248361549122e-02
         - 1.3798919117584499e-01
         - -1.3128651248672144e-02
         - -8.0410613032240886e-03
         - 8.4652486621523568e-02
         - -1.7587248637675506e-02
         - 1.2417530064172372e-01
         - -1.9427656489304081e-02
         - 2.1345217531650994e-02
         - -4.3182524561624767e-02
         - -2.9862976069080976e-02
         - 7.6546270376924306e-03
         - 5.1483619683702096e-02
         - -2.6358531239214340e-02
         - 9.4771316837821085e-02
         - -1.2054922305147855e-01
         - 3.8334975515658516e-02
         - 3.0278687833828546e-02
         - 8.2526897435227439e-03
         - -2.5008622566451356e-02
         - -3.4860750659533701e-02
         - 2.4199975765101522e-02
         - 2.9865289164502659e-03
         - -9.0270778196712680e-03
         - 9.9486326395887507e-03
         - -9.4214347852160443e-02
         - 4.2678255556504105e-02
         - -1.1130713582513645e-02
         - -4.0460799873372616e-02
         - 1.5750355724119022e-02
         - -1.2161416714129721e-01
         - 3.5258723774616807e-02
         - 1.0597761489395981e-01
         - -4.1828190346783228e-02
         - -2.5844228871976094e-04
         - -1.0062078868769921e-02
         - -2.9182550277168845e-01
         - 5.8861166408679423e-02
         - 5.5665801715419405e-02
         - 1.3709376662109864e-02
         - -1.6232305544653654e-02
         - 9.6055329859273286e-02
         - -3.1762088537409972e-02
         - 7.1714953241267939e-03
         - -5.8891145079265810e-03
         - 2.4490956526484382e-02
         - 1.2193781414382988e-01
         - 2.3230705628641332e-01
         - 2.9621454220102480e-02
         - 6.6047903585649950e-02
         - -1.3217885804333128e-02
         - -3.0149131962762966e-02
         - -9.6469170080917405e-03
         - -9.2610930264240311e-03
         - -6.2751629929783061e-04
         - 6.0629494639180609e-03
         - 4.3593051615651267e-03
         - -2.5027082529205425e-02
         - -4.3309488267630529e-02
         - -2.6898655867557873e-02
         - -5.8897153577780019e-03
         - -5.6007900204331756e-03
         - -3.6004818216482271e-02
         - 3.2427788278359175e-02
         - 3.9092920620130756e-02
         - -1.4944064194590689e-01
         - -1.4128749606588433e-02
         - -1.2376675131557114e-02
         - -1.9230738973698219e-01
         - 5.1565680191511018e-02
         - 1.4017795782424619e-01
         - 9.2617588585259796e-03
         - -3.0155972835364579e-02
         - -3.8030805510455096e-02
         - -4.3316488653247165e-02
         - 2.8954344089494729e-03
         - 5.2200415786774583e-03
         - 4.9365613921784337e-03
         - 2.2660672950229117e-02
         - -3.2377796622754169e-03
         - 4.5350962208677445e-02
         - 1.5236064526982399e-01
         - -6.8845703045017012e-03
         - -3.9958161602903552e-02
         - -3.5679801369267294e-02
         - -3.6730731041421882e-02
         - -1.1404097991924194e-02
         - -5.9311950559579746e-03
         - 1.3035873536956202e-02
         - 5.4576916755891984e-02
         - -6.5531498561840540e-02
         - -2.9732748671375146e-02
         - 6.8648228852529525e-02
         - -1.5944403245708175e-02
         - 7.5592524569722836e-03
         - 1.7630201536986023e-02
         - -8.0986287019618811e-02
         - -1.2397241003447712e-02
         - 8.1099538169175055e-03
         - 1.8019465616509949e-02
         - -4.0205031265289237e-02
         - -9.7832829748266736e-02
         - -3.4013892007896243e-02
         - 9.4098834348800946e-03
         - -3.9368157633748575e-02
         - 5.7186796471032773e-02
         - 6.8699985301418812e-02
         - -5.0485589046322613e-03
         - 7.2893956129827742e-02
         - -3.5250441622432585e-02
         - 1.3747367639247660e-01
         - -1.2664400143975321e-01
         - -5.6324865955438071e-02
         - 7.3132283271857376e-02
         - 1.7080440499018209e-03
         - -2.0726565890682752e-01
         - 2.8725154267201725e-02
         - -3.8158445411129432e-03
         - 5.4356307866607334e-02
         - -1.2121918255761678e-02
         - 1.7556409602302809e-03
         - 9.2038509883240523e-03
         - -2.7246346828867583e-02
         - 8.9646664973564334e-03
         - -3.4043397930085449e-02
         - 1.7946018958256670e-02
         - -7.2691928297186251e-02
         - 4.3365347408671130e-02
         - 1.8553423319501118e-03
         - -7.0560358585796623e-02
         - -2.6167776980035171e-02
         - -3.4756757014807377e-02
         - 1.3896888860924655e-01
         - 4.3155483687478208e-02
         - 3.1884516276449733e-02
         - 1.0784956896021432e-02
         - -1.5247786635395298e-03
         - -2.2394324271311911e-02
         - -4.7763217933845872e-02
         - 1.9583773026938530e-02
         - -6.5751292426559721e-02
         - -4.3370805540952219e-02
         - 1.1883423184941394e-01
         - -1.0204462153670700e-01
         - 1.0948126339666363e-01
         - 7.2148614861000965e-02
         - 8.3767235610044694e-03
         - -1.4502231361602969e-01
         - 1.3905186261057467e-02
         - -3.1997185526697489e-02
         - 3.5084866615224329e-02
         - -1.7248343025256484e-02
         - 1.1530150201266711e-02
         - -7.2881639456985461e-02
         - -7.2729388729181582e-02
         - 1.0573802785612551e-03
         - -3.6512931109538009e-02
         - -8.3734363095105575e-03
         - -2.2867341065072064e-01
         - 1.0268486318412529e-01
         - -1.3141660240112096e-01
         - -1.0717457893652688e-01
         - 1.8794981569207343e-02
         - 2.9654119530433436e-02
         - -2.2008832110118663e-02
         - 4.4839844902533843e-02
         - 3.5828048469750566e-02
         - 2.3730315834264024e-02
         - -2.4529968014629835e-02
         - 7.3165702783010739e-02
         - -8.6097004226562759e-02
         - 1.1731002559725750e-04
         - -6.7094002261110106e-02
         - -8.8488837834796566e-02
         - 5.2455751787507755e-02
         - 1.2121568179511791e-01
         - 1.0167900244364475e-01
         - 1.9492009972656285e-01
         - -1.6241585226221392e-02
         - 3.3909518110968567e-02
         - -3.8384460187475558e-02
         - 1.4880035483320082e-02
         - 5.6396187957638375e-03
         - -3.4519576643846938e-03
         - -1.0216732862201648e-02
         - -4.0752161171210062e-02
         - -1.7157246182542565e-02
         - 2.0043475859742643e-02
         - -2.0001290924149241e-02
         - -2.5990553199983666e-03
         - 8.4768774459123925e-02
         - 2.5767955777790050e-02
         - -6.4588512032224057e-02
         - -5.6260851722580052e-02
         - -8.4803745874497769e-03
         - -7.3670615806941441e-03
         - -3.0702543178200759e-02
         - 4.5308141699624473e-02
         - -4.7274904758826806e-02
         - 1.3074015471564979e-02
         - -1.5540088304707180e-02
         - -5.4179354042116816e-02
         - -1.1172117188493802e-01
         - -2.4898069118202593e-03
         - -4.7336184818678378e-02
         - -8.3006322758870710e-02
         - -9.5104747334206777e-02
         - 9.5272324873214034e-02
         - -9.6073511166517231e-03
         - 3.8955479314342269e-02
         - -7.9246589151406935e-03
         - 5.2852227664592723e-02
         - 3.2934696147477495e-02
         - -3.1801161778247607e-02
         - -2.1871850269260595e-02
         - -1.9391619781385264e-02
         - 7.2582770397018005e-03
         - 1.7413167661113560e-01
         - 1.0525110694976416e-04
         - -3.8019906456339042e-02
         - -4.5346457794436149e-02
         - -7.7999391314758607e-04
         - 2.0063999597887278e-01
         - -5.6651063746733538e-02
         - -2.0358678695543624e-02
         - 1.4606430342945401e-01
         - -8.3496370427189898e-03
         - 1.6120624006576670e-02
         - -1.4750253856062737e-01
         - -8.2172469303957094e-02
         - 2.5484138966937203e-01
         - 1.3670227487512887e-03
         - 9.7221671354029784e-04
         - 6.9484205215696159e-03
         - -1.8108423630787095e-03
         - 3.8864107664883306e-03
         - 1.8832699971189187e-01
         - 3.2907659115980183e-02
         - -3.4390569980478236e-02
         - -6.4915897735768030e-02
         - 1.0972726495833822e-01
         - -7.9964035859503541e-02
         - 2.6429294329706754e-02
         - 2.4068042039707360e-01
         - 9.3351310270542599e-03
         - -2.9010176664162373e-02
         - -5.2544657397013396e-02
         - -3.5608125846711171e-03
         - 1.5149820994984263e-02
         - -9.5999897726052139e-03
         - -2.0403092650147513e-02
         - -4.5319242824797039e-02
         - 4.9049389511817990e-02
         - -3.1627945857839117e-02
         - 2.2789237276928528e-01
         - -5.3964781608325761e-02
         - 5.9484737263663670e-02
         - 5.8437825191925877e-02
         - 1.5892619721966757e-02
         - 1.6689535615417080e-02
         - 4.5570913681994035e-02
         - -1.0437501517305385e-01
         - -8.2689904927842048e-02
         - -9.8959953627682511e-04
         - -2.5372523231402501e-03
         - 5.7669326469101861e-02
         - 3.5979754183484744e-02
         - -2.0394704119450677e-03
         - 1.9360953917305204e-01
         - 2.1994780177291126e-01
         - 1.9060900307318068e-01
         - -1.0578227791242398e-01
         - -1.2379073815716773e-01
         - -5.8617308598756190e-02
         - 2.7083373368764145e-02
         - 2.2066365378818797e-01
         - 1.8103197677899713e-03
         - -4.4331066250415212e-02
         - -2.3911412255982315e-02
         - 2.2850138231604231e-02
         - 1.9540987847905401e-02
         - 9.3841576018734080e-02
         - 1.4986653502756066e-03
         - -1.2508493081636693e-02
         - -1.7635337705836725e-04
         - -3.9869809870404803e-02
         - -5.8926328141185098e-02
         - 1.9316479428487417e-02
         - -4.2594716057110567e-03
         - -9.0048785422269448e-02
         - 6.4778732270242270e-03
         - 5.8231783122554498e-03
         - -7.6843498726293299e-02
         - -2.0127443630569000e-01
         - 3.6981393718445006e-02
         - 5.6289686625222045e-03
         - 1.0872341831755976e-02
         - 1.0088781855625191e-01
         - -1.8118014032021446e-02
         - 5.8005651408747846e-03
         - 6.4035548473156192e-02
         - 1.8596108255947519e-01
         - 1.1992571670463276e-01
         - -2.6620079289057630e-01
         - 5.1026358919537586e-02
         - -3.0665507182181376e-02
         - 2.0151969813076813e-02
         - 1.0268904510907654e-02
         - -6.2588222380124250e-02
         - 1.5778793879911782e-02
         - 3.5727603905043068e-03
         - 2.1326964872319751e-02
         - -9.0539502493239537e-03
         - -8.4144654741755046e-02
         - 8.4525948241036420e-03
         - 8.2528845682912407e-03
         - -4.2919985229932338e-02
         - 3.1098132051558001e-02
         - -1.6646188627746686e-01
         - 2.3701888440091454e-02
         - -4.2794015237040038e-02
         - 4.0114263947211244e-02
         - -1.6180171496236493e-02
         - -1.8165770790710880e-02
         - -2.6047886067057793e-02
         - 6.7489268431867103e-02
         - -1.9456406854384969e-01
         - -2.3793834730024357e-02
         - 2.8723556918106035e-04
         - -7.5256968053884848e-02
         - -5.2410716945268193e-02
         - -4.9546343773306861e-03
         - 4.2621910178198545e-02
         - 6.3460723738613556e-02
         - 4.7868886959297738e-02
         - -1.6006286684294904e-02
         - -9.4834213981519699e-02
         - 3.6457564901501573e-02
         - -3.6345440431860158e-02
         - -1.9092486822517366e-01
         - -2.9202288915413648e-02
         - 6.1711845850925297e-03
         - 2.7157297737172834e-02
         - 7.2879519121088684e-03
         - -9.4374729579306919e-03
         - -5.2027863891543707e-02
         - -1.1790027852569100e-02
         - -7.0132905636486123e-03
         - -8.0157743960626027e-02
         - 1.2531567431219048e-03
         - -1.6755905967422829e-01
         - 5.8247629424221771e-02
         - -1.0157838452637991e-01
         - -1.6961379263857018e-01
         - -1.2506209293128918e-02
         - 2.0479429944191578e-03
         - -4.0788864853207159e-02
         - 6.4943023753963020e-02
         - 5.6830722073780961e-02
         - -5.6039707981819752e-03
         - -1.6071619016339935e-02
         - 4.1244001236033438e-02
         - -1.7923170159595750e-01
         - -5.4853676909608689e-03
         - -7.7090197816490529e-03
         - -9.7972516144547106e-02
         - -5.5799176379071273e-02
         - 1.4493859343847984e-01
         - 2.2089226171015226e-02
         - 7.8958549973425260e-02
         - -2.8971745492223793e-02
         - -1.6791292689576967e-01
         - 4.8173279743476377e-02
         - 1.1391670855896876e-02
         - 2.4224964964996563e-02
         - -1.7425239628453600e-02
         - -6.0112111814117448e-03
         - -2.4791756058960158e-02
         - -3.2982772608042506e-02
         - 2.4892925871618000e-02
         - -2.5588811312843771e-02
         - -5.9851515529978387e-03
         - -1.8500846566320983e-01
         - 4.0171818761291909e-02
         - -1.7171897871329986e-02
         - -3.9048001495633117e-02
         - -7.0118000160537550e-03
         - -1.8427332903421152e-02
         - 7.4797524543131266e-02
         - 5.8579105210674567e-02
         - 5.3257670086763541e-02
         - 3.8927729509667382e-03
         - -2.4651323752540311e-03
         - -5.4536424073525103e-02
         - -3.0991282835563052e-03
         - 1.0604099570871977e-02
         - 1.4510860723751044e-02
         - 7.0650976711953296e-03
         - 1.5028508142036864e-01
         - -3.0639817746195910e-02
         - 1.4236072554854584e-01
         - 1.1216023192745286e-01
         - -2.0804810578178613e-02
         - -5.7292449351649052e-02
         - -4.8440004660411137e-02
         - -3.8982198216756568e-03
         - 1.3007411103605412e-02
         - 3.3855200278569128e-02
         - 6.5471602352008239e-03
         - 2.7084704338999902e-02
         - -6.6349221990149795e-02
         - -2.1304247091444291e-02
         - -3.1026116050766293e-02
         - -9.9385768183051643e-03
         - -3.6697397842899375e-02
         - 4.7162263630292710e-02
         - -1.3979456396111226e-01
         - 2.8469603806555083e-02
         - 1.8038607544212323e-02
         - 3.2733963648652847e-03
         - 4.9430690822288334e-02
         - 3.3196067478789650e-02
         - -1.2475717762589690e-02
         - 6.2179985334983721e-02
         - -2.9093345864986673e-03
         - 1.3864407525379605e-01
         - -1.6286763570280274e-01
         - 3.3390709202842594e-03
         - -2.8142051660081584e-02
         - -7.9790705038178811e-02
         - -2.3552911106415274e-03
         - 1.2757447403629016e-01
         - 9.1840948103273562e-02
         - 4.4346394557020719e-02
         - -1.4016661796772942e-02
         - 4.2435196369312297e-02
         - -2.8074481400524560e-02
         - -6.7097365760282737e-03
         - -3.1754893708052782e-02
         - 5.3851896151048517e-02
         - 2.5478019921412850e-02
         - 8.7706718460081271e-03
         - -5.3122134405281081e-02
         - -7.1916939443840379e-03
         - 1.5639458902796617e-02
         - -3.0459012737812180e-02
         - -1.2027225106604754e-01
         - 6.7794796858459724e-02
         - -1.9529300170996203e-01
         - -5.1566868588084250e-02
         - 1.0855745032886714e-02
         - 1.7292137708350835e-02
         - -5.9313662684979077e-02
         - 9.6511023106208519e-04
         - -1.8352971343476441e-02
         - 6.0187624949736021e-02
         - -8.2511156950825105e-03
         - 2.3703971821036735e-01
         - -3.9841559107365414e-02
         - -1.0856566445219479e-02
         - 6.7359649788142725e-02
         - -1.6600368890519315e-02
         - 1.8077648719275651e-02
         - 1.2038460227268945e-01
         - 1.2498479338818216e-01
         - 1.2472793331305705e-01
         - 1.0980865821932721e-02
         - 2.9698115089877162e-02
         - -9.1080761733966717e-02
         - 2.6506415867992093e-02
         - -1.5596012083214622e-03
         - 4.3377121483354174e-02
         - -1.4942382460736791e-02
         - -7.6888218069525397e-03
         - 2.4382978969203694e-03
         - 4.4256518710357226e-02
         - 8.8856744396661330e-02
         - 3.0775310338842714e-02
         - 3.1759854303064321e-02
         - 4.6197394965240435e-03
         - -1.6248490733258142e-04
         - -1.1454354295071702e-01
         - -3.6461957431346712e-02
         - -1.6141692894170712e-02
         - 8.1396958429169178e-02
         - -5.9491777005817502e-02
         - -1.9664225480488254e-01
         - -8.2652149055257359e-03
         - 1.4377366406952089e-02
         - -6.8617545853025208e-02
         - 3.3435124704510734e-03
         - 3.9627480935830748e-03
         - -8.1581909118240981e-02
         - 6.8084938232707767e-02
         - 7.3506988107450114e-02
         - 2.9235570788874111e-02
         - 7.2673483788146795e-02
         - 4.9391870942966404e-02
         - -1.4816922324050279e-02
         - -3.5829437833561122e-02
         - -3.8101293142767216e-02
         - -3.6916666114946893e-02
         - -3.7792079782835948e-02
         - 1.2396958442596587e-02
         - 1.2298787474863761e-02
         - 3.9579981168820687e-02
         - -1.4060526471643372e-02
         - -2.1720258760333556e-02
         - 1.9329435664489848e-02
         - 3.6910228656099539e-02
         - -4.2246763777875722e-02
         - 3.3724054121829765e-02
         - 1.3862691636159832e-01
         - 1.9739519873910702e-01
         - 2.4216405450947056e-03
         - 1.9067715380998440e-02
         - 2.4441811962800510e-02
         - -1.1633022378142996e-01
         - 2.4472494669771933e-01
         - 1.7246820507509566e-03
         - -3.2259879224007706e-02
         - 6.3969568458656020e-02
         - -9.9484496213030366e-03
         - 1.6768114094074676e-02
         - -3.7589669660539567e-02
         - -2.3929424347575726e-02
         - 4.0641207094425945e-02
         - 4.6375595989143414e-01
         - 1.1303260433022877e-01
         - -2.6353333899457269e-02
         - 9.2478798225645760e-03
         - 1.8881865174763507e-01
         - 7.6040833902178681e-02
         - -5.7584148740050023e-02
         - -3.0657252637020922e-02
         - -5.0946332861437751e-02
         - 3.9934370027318179e-02
         - 6.5902358060841007e-02
         - -3.9613645252253603e-02
         - -5.8144702632135399e-02
         - -1.3454059437942975e-01
         - -4.4260735700122136e-02
         - -1.8978328762693012e-02
         - 1.0725219960619505e-02
         - 4.5992453428631503e-03
         - 3.3186944685643718e-02
         - 2.4838136989500870e-02
         - 4.8181340075693489e-02
         - -1.6460454436924808e-02
         - -1.2042316619257051e-01
         - 1.8559093793332432e-01
         - -1.3116643796841628e-02
         - -4.6971401291571159e-02
         - -3.8721502276161807e-02
         - -2.3284567609415516e-01
         - 2.0865112904308238e-02
         - 9.2233352207756511e-02
         - 1.9463554241793610e-01
         - 8.5849947710644609e-02
         - -1.8540471250432611e-02
         - 6.6749839014226139e-02
         - 3.8730180958441655e-02
         - 2.8941536684999949e-02
         - 6.7872025034261693e-02
         - 1.3479724868983425e-01
         - -6.1538835822862372e-03
         - 5.7988467943632504e-03
         - -2.4669930408062053e-02
         - -1.1262049072568591e-02
         - -6.6574492346873598e-02
         - 2.3314887338454202e-02
         - -7.1639596680629887e-03
         - -6.7943284945230845e-03
         - -4.1852393621958812e-02
         - -4.3811584511339673e-02
         - 4.9878690662927844e-03
         - -5.5680266429151595e-02
         - -1.3341355402025337e-01
         - -1.3795472037807393e-03
         - -1.5474657713172491e-04
         - 1.1246602913132493e-01
         - -4.7542866717230542e-02
         - 2.3482994765251131e-01
         - -2.9050546866809467e-03
         - 1.5584435409829156e-02
         - 4.7909109842698703e-03
         - 9.4682293590932498e-02
         - -2.7538086169157949e-03
         - 5.0777953581039550e-02
         - 3.8958286551928956e-02
         - 1.0730756720432956e-01
         - -2.7313789677847367e-01
         - 1.5714250946374736e-01
         - 2.3388320312567833e-02
         - 3.3321815603903028e-03
         - -1.4055191769456413e-01
         - -8.3474215256047271e-03
         - 4.7431553619067028e-02
         - 3.4662346296655537e-02
         - 2.7571889704172833e-02
         - -2.7356632279797212e-02
         - 6.0011197894380044e-02
         - 5.8358106422482584e-02
         - 4.2549862434847770e-02
         - 5.7290027031747980e-02
         - 4.0998159281803066e-02
         - -7.6820341741865555e-02
         - 5.9159368279895384e-04
         - 6.0518632078309237e-02
         - -1.0801698203252726e-02
         - -3.2056174349888555e-02
         - -5.6153774753158393e-02
         - 2.2302773927576200e-01
         - 6.1681148459168222e-02
         - -1.1588609847627518e-01
         - -2.0435075289890189e-02
         - 3.5006436549663601e-02
         - -1.1363164424527526e-01
         - 8.4829807050184655e-02
         - -2.7033460486248759e-02
         - -7.9134151887072207e-02
         - -1.2820835675032571e-01
         - -8.1178391383614726e-02
         - -3.7517212777396874e-01
         - 3.2866077656395619e-02
         - -5.3578516001027865e-02
         - -2.7577556258338326e-02
         - -5.0785719855676878e-03
         - -4.8460143449432055e-04
         - 1.9242202846765904e-02
         - 9.5389915016088848e-03
         - 3.1708080553414633e-02
         - 7.1890611373560068e-03
         - -2.5218269675261348e-02
         - -1.5926501576301974e-02
         - 1.0719654040954728e-02
         - 5.2711501169880097e-02
         - 2.3839607576468122e-02
         - 6.9824647629746800e-02
         - 1.4744404319291835e-02
         - -1.4024177862145426e-01
         - 2.0279739157257341e-02
         - -1.4439483784821993e-02
         - -4.5199896425945381e-04
         - -3.2446274087665768e-02
         - 1.1100652917543330e-01
         - -1.0447412905284002e-01
         - 3.9292202641162878e-02
         - 3.3595938760529453e-04
         - 9.6221428071618792e-02
         - 6.1506823527385894e-02
         - -2.5831627158162007e-02
         - 2.4607035941869554e-02
         - -3.2459189845289595e-02
         - -1.1101108091347674e-02
         - -6.2479381652449151e-02
         - -9.8447174936880266e-02
         - -1.2385287323446786e-01
         - -2.2055785278311955e-02
         - -8.8830281979245654e-02
         - -2.6306896189862827e-02
         - 2.6154911756582546e-03
         - 1.6881096261691011e-02
         - 2.7273845541880292e-02
         - 3.9825471983795276e-03
         - -4.0730061718229432e-02
         - -5.1643845977423213e-02
         - 1.3258534194039178e-04
         - 4.8078606675366065e-02
         - 1.5837899234228743e-02
         - -4.6542936965508888e-02
         - 1.8373315835840866e-02
         - -3.2283986182501480e-02
         - 3.7730228574800330e-02
         - 1.5955825023866450e-02
         - -5.2014388749745564e-03
         - -1.0624880769685353e-02
         - 6.4324072008580216e-02
         - 4.3098921013641441e-02
         - 4.2722923530763471e-02
         - 1.0711510300008246e-02
         - 8.9238056406266697e-02
         - -3.9183273944732337e-03
         - -7.0854948251134718e-03
         - -6.1926394555332095e-02
         - -9.6929215766476992e-02
         - 3.8140937493570573e-02
         - 7.9875580157392032e-02
         - -9.2960529125525493e-02
         - 4.6144589983559942e-02
         - -1.6410264739972317e-02
         - -7.1315450139409070e-02
         - -6.8002159902528095e-03
         - 1.7302406666106578e-03
         - 2.1094691845240765e-02
         - -1.2790319641520406e-02
         - -2.6341118568820363e-02
         - 4.5962147956567001e-02
         - 6.1535753253444472e-03
         - 1.6986890574587236e-02
         - 2.9530436339325533e-02
         - 2.4684286087707411e-02
         - -8.6521514728456657e-03
         - 7.9263495488552556e-03
         - 7.7520470563343033e-02
         - 2.7970719608229624e-02
         - -2.0785266702125698e-02
         - -3.0682334992467530e-02
         - 2.1587919099687622e-01
         - 1.0560676065583701e-02
         - 5.2120794262999655e-02
         - -1.6243952931498058e-02
         - -2.3688384926453407e-02
         - -8.3058863938620484e-02
         - -2.5869520937149112e-02
         - -3.7303860658165537e-02
         - -6.6115982538617862e-02
         - -6.8526785810651913e-02
         - -6.3011347667529458e-02
         - 1.6906000757049868e-02
         - 6.9906826847105337e-03
         - -4.8697349660243548e-02
         - 3.2054880128713679e-03
         - -6.1273216087539349e-02
         - 3.5078648726086174e-02
         - -1.4054424801169237e-03
         - 3.5323292305190164e-02
         - -2.7540239686371863e-02
         - -1.4849259989061432e-02
         - 6.7339022248660133e-02
         - 2.8160769468003666e-02
         - -5.1055074052720134e-03
         - -1.1468470286834353e-02
         - 1.1505665743246947e-02
         - 2.0596161990461149e-02
         - 1.3726233539904612e-03
         - 1.0935170329848358e-01
         - 1.8974949280929389e-02
         - -2.3267793166302581e-02
         - -3.1307608524902837e-02
         - -9.4129327810421340e-02
         - -4.0731318712968157e-03
         - 8.4322893849778272e-02
         - 3.6062689511649940e-02
         - -4.6325808547692726e-03
         - 2.0945442591328908e-02
         - -3.5149886915311385e-03
         - -2.0543021501059255e-02
         - -2.7125504917935781e-02
         - -6.1780565139314438e-02
         - -5.3663369228812312e-02
         - 1.9095698968525834e-02
         - 6.8769344318876824e-02
         - -8.9332227506004700e-03
         - 7.7960521470347979e-03
         - 4.6501121339414218e-03
         - -3.5599843056463814e-04
         - 2.1733372620410470e-02
         - 1.4421900916336288e-02
         - 1.6646904855641697e-02
         - -1.1091576568767863e-02
         - -2.3950319526279667e-02
         - 4.7251153211529992e-02
         - 7.9747159127481222e-03
         - 1.6045699095304868e-02
         - 9.3630677277097962e-03
         - 1.3736730620599474e-01
         - -3.1106251482417482e-02
         - 6.1881559774191686e-02
         - -8.6490118384697320e-02
         - -3.1750388036850617e-02
         - 3.1746996839504093e-04
         - -3.3320337908888789e-02
         - -3.1977208995361148e-02
         - 8.0586541984316640e-02
         - 9.7579565998640420e-03
         - -3.4643007401865835e-03
         - 1.5305682198179815e-01
         - 1.0490771719451791e-02
         - -1.2765765418628184e-02
         - 2.0044056849197203e-02
         - -1.3954836628660588e-01
         - -2.4689563932817946e-01
         - 8.7386453455421384e-02
         - 6.7335666950945866e-02
         - -2.9326773392778397e-02
         - -5.4435044524219524e-03
         - -1.6219844825868099e-01
         - 9.8271567581973406e-06
         - 9.4316241357699608e-03
         - 2.5545622860906433e-02
         - 1.4547585328181662e-02
         - -1.8033229273875476e-02
         - -8.8161318019483702e-03
         - 6.4014169882797858e-02
         - 1.4410005263924329e-02
         - -8.0325063973146500e-03
         - 1.4206024335753487e-02
         - 1.8422739193626636e-01
         - -2.9159939311654195e-02
         - 6.5113311356604767e-02
         - -7.9092094691001466e-02
         - -1.8505751205410488e-02
         - -1.7599629276591394e-02
         - 4.0687416431532036e-02
         - 5.6470033291492298e-02
         - -8.0816015752647255e-02
         - -3.3958522990462904e-02
         - 2.4737386204560029e-02
         - -1.2195152553875337e-01
         - 2.5366605363930133e-02
         - 5.8950625864596018e-03
         - -8.7063155448013893e-02
         - -1.8156230690361475e-02
         - 3.6015761558716336e-01
         - -9.1532439432145590e-02
         - -6.2724368393812346e-02
         - 2.7947640780042266e-02
         - -1.9871822256317003e-02
         - -5.5730661341367463e-02
         - -2.5365981735048455e-02
         - -2.1062174384654408e-02
         - -2.5026439785276116e-02
         - 1.1973971080386892e-02
         - 5.7999498201439367e-03
         - -7.8979150498375714e-02
         - -2.5247978981811685e-02
         - -5.3817161074174162e-02
         - -8.9390357190796910e-02
         - -1.4760399770789962e-02
         - 1.9913215830160654e-03
         - 1.3674590202044859e-02
         - 1.0970172698849846e-01
         - 3.6228622843704560e-02
         - 2.2867442736161564e-02
         - 2.3508336029112432e-02
         - -1.6971683185221231e-01
         - 1.0416894320811280e-01
         - -9.0403108183630912e-02
         - 7.8353848070125687e-03
         - -2.8532490278589622e-04
         - 2.0530775144391906e-02
         - -2.3270550447175728e-01
         - 3.0654555448143342e-02
         - 3.5915410710847563e-02
         - 6.9274338492079063e-02
         - 2.1249545480757107e-01
         - 6.4438599066218655e-02
         - -1.3612459367461515e-02
         - 5.4488645922075862e-02
         - -3.0513211735799722e-02
         - 7.6342414434718162e-02
         - -9.1326011268560603e-02
         - -9.8454141001477202e-03
         - -4.4240589657189897e-02
         - 2.5425569415117137e-02
         - 2.3643520919652251e-02
         - -4.2526852825190108e-03
         - -2.0920526779867978e-02
         - -3.9001433940011036e-02
         - -1.1006090417261903e-01
         - 1.4044311478676444e-02
         - 1.5389556787852168e-02
         - 1.7283015144865378e-03
         - -9.4326403117666754e-02
         - 7.8914794445764699e-02
         - 9.6126314209782661e-03
         - 8.1845173904622273e-03
         - -6.2804320682665352e-02
         - -8.4359199352661479e-02
         - 5.3211822388707766e-02
         - 4.3133812895946970e-03
         - -1.4795033196862626e-02
         - 6.1538126084376019e-02
         - -1.3428003164038990e-01
         - 2.2659964028796657e-02
         - 1.4118619125185930e-01
         - -2.0656462211158990e-02
         - 9.1799580606570248e-03
         - 8.9275646712972626e-02
         - 4.4239520242982278e-02
         - 2.6742556610391755e-02
         - -5.9520515102286370e-03
         - -3.0189507163915837e-02
         - 5.0617726022854304e-02
         - 2.3704364678911950e-02
         - -1.7974390740318738e-03
         - -2.5515165957438889e-03
         - -1.3048404863199622e-02
         - 4.7513413202648729e-02
         - 3.9969746707319599e-02
         - 5.3431165009254156e-02
         - 5.0016611905482393e-02
         - 3.8784843677085165e-02
         - 1.0092541095721060e-01
         - -3.9936329766727820e-02
         - 1.0036510622472353e-01
         - -1.8045212595273591e-01
         - -1.2956278722685132e-02
         - -2.2055708557278980e-02
         - 6.8358173841734204e-02
         - -8.8718750270095667e-02
         - 1.7407891336827731e-02
         - -1.4306566758905615e-02
         - -1.1173342495221414e-02
         - 4.5362612344941190e-02
         - 8.4274768595357291e-02
         - -6.0491490165547465e-03
         - 2.0087004401610976e-04
         - -6.7067546899305178e-02
         - -1.9205979450462640e-01
         - 1.0117597967553201e-02
         - -2.9974834745205112e-02
         - -1.2967231329463122e-01
         - 9.1398422762004050e-03
         - 9.3059832996434926e-03
         - 8.6234832878781614e-02
